{"learner":{"attributes":{"best_iteration":"149","best_ntree_limit":"150","scikit_learn":"{\"n_estimators\": 150, \"objective\": \"reg:squarederror\", \"max_depth\": null, \"max_leaves\": null, \"max_bin\": null, \"grow_policy\": null, \"learning_rate\": null, \"verbosity\": null, \"booster\": null, \"tree_method\": null, \"gamma\": null, \"min_child_weight\": null, \"max_delta_step\": null, \"subsample\": null, \"sampling_method\": null, \"colsample_bytree\": null, \"colsample_bylevel\": null, \"colsample_bynode\": null, \"reg_alpha\": null, \"reg_lambda\": null, \"scale_pos_weight\": null, \"base_score\": null, \"missing\": NaN, \"num_parallel_tree\": null, \"random_state\": null, \"n_jobs\": null, \"monotone_constraints\": null, \"interaction_constraints\": null, \"importance_type\": null, \"gpu_id\": null, \"validate_parameters\": null, \"predictor\": null, \"enable_categorical\": false, \"max_cat_to_onehot\": null, \"eval_metric\": null, \"early_stopping_rounds\": null, \"callbacks\": null, \"kwargs\": {\"seed\": 123}, \"_estimator_type\": \"regressor\"}"},"feature_names":[],"feature_types":[],"gradient_booster":{"model":{"gbtree_model_param":{"num_parallel_tree":"1","num_trees":"150","size_leaf_vector":"0"},"tree_info":[0,0,0,0,0,0,0,0,0,0,0,0,0,0,0,0,0,0,0,0,0,0,0,0,0,0,0,0,0,0,0,0,0,0,0,0,0,0,0,0,0,0,0,0,0,0,0,0,0,0,0,0,0,0,0,0,0,0,0,0,0,0,0,0,0,0,0,0,0,0,0,0,0,0,0,0,0,0,0,0,0,0,0,0,0,0,0,0,0,0,0,0,0,0,0,0,0,0,0,0,0,0,0,0,0,0,0,0,0,0,0,0,0,0,0,0,0,0,0,0,0,0,0,0,0,0,0,0,0,0,0,0,0,0,0,0,0,0,0,0,0,0,0,0,0,0,0,0,0,0],"trees":[{"base_weights":[6.8568825E1,5.8565098E1,7.3617485E1,6.1431496E1,5.1392307E1,7.5299484E1,6.622414E1,7.295807E1,7.884176E1,6.815737E1,5.614186E1],"categories":[],"categories_nodes":[],"categories_segments":[],"categories_sizes":[],"default_left":[1,1,1,0,0,1,1,0,0,0,0],"id":0,"left_children":[1,3,5,-1,-1,7,9,-1,-1,-1,-1],"loss_changes":[8.7709E4,9.508E3,1.0023E4,0E0,0E0,2.3425E3,6.955625E2,0E0,0E0,0E0,0E0],"parents":[2147483647,0,0,1,1,2,2,5,5,6,6],"right_children":[2,4,6,-1,-1,8,10,-1,-1,-1,-1],"split_conditions":[4.539275E-1,7.245575E-1,3.9269912E-1,1.842945E1,1.5417693E1,7.736027E-1,6.183628E-1,2.188742E1,2.3652529E1,2.0447212E1,1.684256E1],"split_indices":[6,8,8,0,0,6,8,0,0,0,0],"split_type":[0,0,0,0,0,0,0,0,0,0,0],"sum_hessian":[1.821E3,6.15E2,1.206E3,4.34E2,1.81E2,9.75E2,2.31E2,6E2,3.75E2,1.89E2,4.2E1],"tree_param":{"num_deleted":"0","num_feature":"10","num_nodes":"11","size_leaf_vector":"0"}},{"base_weights":[4.8062214E1,4.2067097E1,5.232255E1,4.4769855E1,3.720053E1,5.478002E1,4.9966E1,3.9994923E1,4.6572514E1,3.8259293E1,3.2424294E1,5.044568E1,4.1160126E1,4.4985405E1,3.3365826E1,4.9347065E1,4.361217E1],"categories":[],"categories_nodes":[],"categories_segments":[],"categories_sizes":[],"default_left":[1,1,1,1,1,0,1,1,1,0,0,0,0,0,0,0,0],"id":1,"left_children":[1,3,5,7,9,-1,11,13,15,-1,-1,-1,-1,-1,-1,-1,-1],"loss_changes":[4.43355E4,8.357125E3,3.40725E3,2.3120625E3,1.653125E2,0E0,2.595E2,3.1305625E3,6.8975E2,0E0,0E0,0E0,0E0,0E0,0E0,0E0,0E0],"parents":[2147483647,0,0,1,1,2,2,3,3,4,4,6,6,7,7,8,8],"right_children":[2,4,6,8,10,-1,12,14,16,-1,-1,-1,-1,-1,-1,-1,-1],"split_conditions":[5.324774E-1,6.073009E-1,1.4335665E-1,1.6482301E-1,9.9336284E-1,1.6434008E1,5.674779E-1,6.415929E-2,4.6570796E-1,1.1477788E1,9.727288E0,1.5133704E1,1.2348039E1,1.3495622E1,1.0009748E1,1.480412E1,1.3083652E1],"split_indices":[6,8,7,8,8,0,8,8,8,0,0,0,0,0,0,0,0],"split_type":[0,0,0,0,0,0,0,0,0,0,0,0,0,0,0,0,0],"sum_hessian":[1.821E3,7.61E2,1.06E3,4.84E2,2.77E2,5.08E2,5.52E2,1.39E2,3.45E2,2.21E2,5.6E1,5.19E2,3.3E1,7.6E1,6.3E1,1.7E2,1.75E2],"tree_param":{"num_deleted":"0","num_feature":"10","num_nodes":"17","size_leaf_vector":"0"}},{"base_weights":[3.3707497E1,2.8469334E1,3.6093906E1,3.567223E1,2.7497402E1,3.7643494E1,3.320311E1,2.8470093E1,2.3465185E1,3.6383945E1,4.0357735E1,3.378682E1,2.6811714E1,2.531355E1,2.9977993E1,4.057285E1,9.409179E0,3.3928223E1,2.094065E1,2.2197674E1,2.683169E1],"categories":[],"categories_nodes":[],"categories_segments":[],"categories_sizes":[],"default_left":[1,1,1,0,1,1,1,1,0,0,1,1,0,1,0,0,0,0,0,0,0],"id":2,"left_children":[1,3,5,-1,7,9,11,13,-1,-1,15,17,-1,19,-1,-1,-1,-1,-1,-1,-1],"loss_changes":[2.1748125E4,3.0445312E3,4.340625E3,0E0,1.3361562E3,1.283625E3,7.505625E2,1.178375E3,0E0,0E0,1.256E3,2.15625E1,0E0,5.7179688E1,0E0,0E0,0E0,0E0,0E0,0E0,0E0],"parents":[2147483647,0,0,1,1,2,2,4,4,5,5,6,6,7,7,10,10,11,11,13,13],"right_children":[2,4,6,-1,8,10,12,14,-1,-1,16,18,-1,20,-1,-1,-1,-1,-1,-1,-1],"split_conditions":[4.1993958E-1,2.631579E-2,3.1747788E-1,1.070167E1,8.2411504E-1,8.2854986E-1,6.7256635E-1,1.925982E-1,7.039556E0,1.0915184E1,6.7021275E-1,9.104985E-1,8.043514E0,2.8097343E-1,8.993399E0,1.2171855E1,2.8227537E0,1.0178467E1,6.2821956E0,6.659302E0,8.049507E0],"split_indices":[6,5,8,0,8,6,8,6,0,0,3,6,0,8,0,0,0,0,0,0,0],"split_type":[0,0,0,0,0,0,0,0,0,0,0,0,0,0,0,0,0,0,0,0,0],"sum_hessian":[1.821E3,5.74E2,1.247E3,6.4E1,5.1E2,8.04E2,4.43E2,4.06E2,1.04E2,5.59E2,2.45E2,4.02E2,4.1E1,1.37E2,2.69E2,2.43E2,2E0,3.96E2,6E0,5E1,8.7E1],"tree_param":{"num_deleted":"0","num_feature":"10","num_nodes":"21","size_leaf_vector":"0"}},{"base_weights":[2.3645664E1,2.0545069E1,2.5737633E1,2.2036472E1,1.818653E1,2.6131367E1,2.0739248E1,1.91603E1,2.3177277E1,1.884949E1,1.6017038E1,2.8215498E1,2.538114E1,2.088701E1,1.2535691E1,2.510434E1,2.2182423E1,2.2503502E1,2.8709396E1,1.187059E1,2.1415304E1,1.2883427E1,5.111603E0,1.5237207E1,4.6946707E0,1.566401E1,2.2042969E1],"categories":[],"categories_nodes":[],"categories_segments":[],"categories_sizes":[],"default_left":[1,1,1,1,1,1,0,1,1,0,0,1,0,1,1,0,0,0,0,1,1,0,0,0,0,0,0],"id":3,"left_children":[1,3,5,7,9,11,-1,13,15,-1,-1,17,-1,19,21,-1,-1,-1,-1,23,25,-1,-1,-1,-1,-1,-1],"loss_changes":[1.12893125E4,2.1987188E3,1.591375E3,1.025875E3,1.180625E2,8.49E2,0E0,1.2595273E3,4.8953125E1,0E0,0E0,7.615625E1,0E0,2.4117188E2,1.1593262E1,0E0,0E0,0E0,0E0,1.2173486E2,4.8789062E0,0E0,0E0,0E0,0E0,0E0,0E0],"parents":[2147483647,0,0,1,1,2,2,3,3,4,4,5,5,7,7,8,8,11,11,13,13,14,14,19,19,20,20],"right_children":[2,4,6,8,10,12,-1,14,16,-1,-1,18,-1,20,22,-1,-1,-1,-1,24,26,-1,-1,-1,-1,-1,-1],"split_conditions":[5E-1,5.8960176E-1,4.9668142E-1,1.5486726E-1,9.1039824E-1,6.6433564E-2,6.2217746E0,8.960177E-2,3.6836284E-1,5.654847E0,4.805112E0,1.0638298E-2,7.614342E0,1.5486726E-2,1.4823009E-1,7.531302E0,6.654727E0,6.751051E0,8.61282E0,5.5309734E-3,8.232628E-2,3.8650281E0,1.5334809E0,4.571162E0,1.4084013E0,4.699203E0,6.6128907E0],"split_indices":[4,8,8,8,8,7,0,8,8,0,0,3,0,8,8,0,0,0,0,8,6,0,0,0,0,0,0],"split_type":[0,0,0,0,0,0,0,0,0,0,0,0,0,0,0,0,0,0,0,0,0,0,0,0,0,0,0],"sum_hessian":[1.821E3,7.38E2,1.083E3,4.47E2,2.91E2,1E3,8.3E1,1.32E2,3.15E2,2.17E2,7.4E1,2.55E2,7.45E2,1.03E2,2.9E1,9.9E1,2.16E2,2.4E1,2.31E2,7E0,9.6E1,2.7E1,2E0,4E0,3E0,1.2E1,8.4E1],"tree_param":{"num_deleted":"0","num_feature":"10","num_nodes":"27","size_leaf_vector":"0"}},{"base_weights":[1.6593971E1,1.759341E1,1.3337457E1,1.6137377E1,1.8706694E1,1.4572978E1,1.2334944E1,1.4352686E1,1.688643E1,1.8816254E1,8.367039E0,1.5084332E1,1.1112225E1,1.16349945E1,1.3608483E1,1.602185E1,1.11960335E1,1.961996E1,1.7539165E1,-6.295921E-1,1.4469726E1,5.6035795E0,1.1712098E1,1.1676528E1,1.4967707E1,1.0227537E1,1.6455627E1,9.559952E0,1.2737877E1,2.0222357E1,1.7889494E1,1.7670965E1,1.1197109E1,2.4511147E0,-3.5004349E0,1.2243679E1,3.6383696E0,1.8572582E1,1.4310927E1,1.1017179E1,6.3789954E0,1.3178141E1,4.0892816E0,4.5246735E0,1.7958559E1],"categories":[],"categories_nodes":[],"categories_segments":[],"categories_sizes":[],"default_left":[1,1,1,1,1,1,1,1,0,1,1,0,0,1,1,1,1,1,1,1,0,0,0,0,0,1,1,1,1,0,1,0,0,0,0,0,0,0,0,0,0,0,0,0,0],"id":4,"left_children":[1,3,5,7,9,11,13,15,-1,17,19,-1,-1,21,23,25,27,29,31,33,-1,-1,-1,-1,-1,35,37,39,41,-1,43,-1,-1,-1,-1,-1,-1,-1,-1,-1,-1,-1,-1,-1,-1],"loss_changes":[5.6954062E3,1.9529062E3,3.5532812E2,5.7309375E2,7.2840625E2,1.6507812E2,6.00625E1,8.0591797E2,0E0,4.493125E2,5.581462E2,0E0,0E0,1.11015625E1,3.7930664E1,1.3331055E2,4.976172E1,1.24E2,5.9578125E1,5.280109E1,0E0,0E0,0E0,0E0,0E0,1.01584595E2,2.3363672E2,1.01230225E2,6.7956055E1,0E0,3.78125E1,0E0,0E0,0E0,0E0,0E0,0E0,0E0,0E0,0E0,0E0,0E0,0E0,0E0,0E0],"parents":[2147483647,0,0,1,1,2,2,3,3,4,4,5,5,6,6,7,7,9,9,10,10,13,13,14,14,15,15,16,16,17,17,18,18,19,19,25,25,26,26,27,27,28,28,30,30],"right_children":[2,4,6,8,10,12,14,16,-1,18,20,-1,-1,22,24,26,28,30,32,34,-1,-1,-1,-1,-1,36,38,40,42,-1,44,-1,-1,-1,-1,-1,-1,-1,-1,-1,-1,-1,-1,-1,-1],"split_conditions":[5.232301E-1,6.3972807E-1,3.9473683E-1,1.5486726E-1,9.473684E-1,9.7013277E-1,5.7843137E-1,6.415929E-2,5.0659294E0,2.4668142E-1,8.8235295E-1,4.5253E0,3.3336675E0,1.13036305E-1,2.5906342E-1,1.5486726E-2,3.627451E-1,1.6433567E-1,8.5800606E-1,5.1960784E-1,4.340918E0,1.6810739E0,3.5136297E0,3.5029585E0,4.490312E0,5.5309734E-3,4.20354E-2,9.402655E-2,1.4823009E-1,6.066707E0,1.874255E-3,5.3012896E0,3.359133E0,7.353344E-1,-1.0501305E0,3.6731038E0,1.0915109E0,5.571775E0,4.293278E0,3.3051536E0,1.9136987E0,3.9534423E0,1.2267845E0,1.3574021E0,5.387568E0],"split_indices":[8,6,5,8,5,8,0,8,0,8,0,0,0,1,6,8,0,7,6,0,0,0,0,0,0,8,8,8,8,0,2,0,0,0,0,0,0,0,0,0,0,0,0,0,0],"split_type":[0,0,0,0,0,0,0,0,0,0,0,0,0,0,0,0,0,0,0,0,0,0,0,0,0,0,0,0,0,0,0,0,0,0,0,0,0,0,0,0,0,0,0,0,0],"sum_hessian":[1.821E3,1.39E3,4.31E2,6.09E2,7.81E2,1.87E2,2.44E2,1.86E2,4.23E2,7.72E2,9E0,1.6E2,2.7E1,1.64E2,8E1,1.19E2,6.7E1,4.65E2,3.07E2,4E0,5E0,3E0,1.61E2,3.7E1,4.3E1,1E1,1.09E2,3.6E1,3.1E1,3.37E2,1.28E2,2.99E2,8E0,2E0,2E0,7E0,3E0,5.1E1,5.8E1,2.3E1,1.3E1,2.9E1,2E0,1E0,1.27E2],"tree_param":{"num_deleted":"0","num_feature":"10","num_nodes":"45","size_leaf_vector":"0"}},{"base_weights":[1.1657844E1,9.982345E0,1.2708847E1,1.23784075E1,9.4261675E0,1.2417191E1,1.4983344E1,1.26874275E1,8.911706E0,8.262172E0,1.0177237E1,1.2735348E1,1.1136798E1,1.0613335E1,1.33434E1,8.558075E0,5.6985345E0,1.0757579E1,8.737234E0,1.1770556E1,1.3027532E1,1.1382161E1,8.285813E0,7.13542E0,9.029006E0,9.908085E-1,1.0793842E1,9.707162E0,6.4262924E0,1.2442876E1,8.958172E0,1.4797425E1,1.2721023E1,2.3036957E0,8.479415E0,7.460027E0,4.255272E0,3.714611E0,9.111631E0,9.649011E0,1.1341418E1,1.0684864E1,8.368308E0,6.784681E0,-2.700262E0,9.370314E0,6.142667E-1,1.2915154E0,1.494822E1,1.4509515E1,1.2519341E1,8.845422E0,3.578902E0],"categories":[],"categories_nodes":[],"categories_segments":[],"categories_sizes":[],"default_left":[1,1,1,1,1,1,0,1,0,1,1,1,1,0,0,1,0,1,1,1,1,0,1,1,1,0,1,1,1,0,1,1,1,0,1,0,0,0,0,0,0,0,0,0,0,0,0,0,0,0,0,0,0],"id":5,"left_children":[1,3,5,7,9,11,-1,13,-1,15,17,19,21,-1,-1,23,-1,25,27,29,31,-1,33,35,37,-1,39,41,43,-1,45,47,49,-1,51,-1,-1,-1,-1,-1,-1,-1,-1,-1,-1,-1,-1,-1,-1,-1,-1,-1,-1],"loss_changes":[3.0815938E3,8.254922E2,5.5428125E2,2.6199219E1,4.2122656E2,2.6348438E2,0E0,1.7566406E1,0E0,1.2722461E2,1.959961E2,6.9359375E1,4.979297E1,0E0,0E0,7.358887E1,0E0,7.537109E1,1.729707E2,2.5535547E2,1.35625E2,0E0,3.6287842E0,2.061084E1,3.2458984E1,0E0,4.2273438E1,4.833496E0,1.2952942E2,0E0,1.3523804E2,1.4769727E2,4.4765625E0,0E0,2.421997E0,0E0,0E0,0E0,0E0,0E0,0E0,0E0,0E0,0E0,0E0,0E0,0E0,0E0,0E0,0E0,0E0,0E0,0E0],"parents":[2147483647,0,0,1,1,2,2,3,3,4,4,5,5,7,7,9,9,10,10,11,11,12,12,15,15,17,17,18,18,19,19,20,20,22,22,23,23,24,24,26,26,27,27,28,28,30,30,31,31,32,32,34,34],"right_children":[2,4,6,8,10,12,-1,14,-1,16,18,20,22,-1,-1,24,-1,26,28,30,32,-1,34,36,38,-1,40,42,44,-1,46,48,50,-1,52,-1,-1,-1,-1,-1,-1,-1,-1,-1,-1,-1,-1,-1,-1,-1,-1,-1,-1],"split_conditions":[7.745098E-1,2.631579E-2,8.953928E-1,4.7676992E-1,2.5755286E-1,4.181416E-1,4.495003E0,2.8368793E-2,2.673512E0,9.988938E-1,8.333334E-1,1.1615044E-1,9.015486E-1,3.1840005E0,4.0030203E0,5.7401814E-2,1.7095604E0,1.7699115E-2,1.5043789E-1,4.5353983E-2,1.7477876E-1,3.4146485E0,1.4048338E-1,8.439716E-1,8.168317E-2,2.9724255E-1,4.019608E-1,4E-1,7.54902E-1,3.732863E0,7.223402E-1,4.2413795E-1,4.599698E-1,6.911087E-1,7.3758864E-1,2.2380083E0,1.2765816E0,1.1143833E0,2.7334895E0,2.8947034E0,3.4024255E0,3.2054594E0,2.5104926E0,2.0354044E0,-8.100787E-1,2.8110943E0,1.8428001E-1,3.8745463E-1,4.484466E0,4.3528547E0,3.7558026E0,2.6536267E0,1.0736706E0],"split_indices":[0,5,6,8,6,8,0,3,0,8,5,8,8,0,0,6,0,8,2,8,8,0,6,3,1,0,0,4,0,0,2,4,6,0,3,0,0,0,0,0,0,0,0,0,0,0,0,0,0,0,0,0,0],"split_type":[0,0,0,0,0,0,0,0,0,0,0,0,0,0,0,0,0,0,0,0,0,0,0,0,0,0,0,0,0,0,0,0,0,0,0,0,0,0,0,0,0,0,0,0,0,0,0,0,0,0,0,0,0],"sum_hessian":[1.821E3,7.06E2,1.115E3,1.29E2,5.77E2,9.94E2,1.21E2,1.16E2,1.3E1,2.31E2,3.46E2,7.89E2,2.05E2,3.2E1,8.4E1,2.05E2,2.6E1,2.42E2,1.04E2,1.93E2,5.96E2,1.86E2,1.9E1,5.5E1,1.5E2,1E0,2.41E2,7.1E1,3.3E1,1.53E2,4E1,8.1E1,5.15E2,1E0,1.8E1,4.8E1,7E0,3E0,1.47E2,8.4E1,1.57E2,3.7E1,3.4E1,3.2E1,1E0,3.8E1,2E0,1E0,8E1,4.5E1,4.7E2,1.6E1,2E0],"tree_param":{"num_deleted":"0","num_feature":"10","num_nodes":"53","size_leaf_vector":"0"}},{"base_weights":[8.195894E0,7.125031E0,9.00328E0,8.115433E0,6.273021E0,8.420665E0,9.586518E0,7.1554093E0,8.980211E0,5.9555492E0,7.985587E0,1.0595241E1,8.27246E0,9.27316E0,1.0667048E1,5.021918E0,7.706502E0,9.097113E0,5.6703568E0,6.0721393E0,3.6407652E0,8.921762E0,6.7706065E0,8.553494E0,7.4871078E0,1.0483052E1,8.97831E0,1.0752899E1,4.077965E0,5.5825086E0,3.0874588E0,7.8137856E0,2.1590672E0,1.2606888E0,6.1105466E0,-1.1926773E0,4.923668E0,1.0275936E0,6.922717E0,3.0039196E0,8.591823E0,9.143905E0,7.367349E0,5.8607683E0,2.378192E0,9.603901E-1,3.765061E0,6.8545675E0,8.685013E0,5.5692973E0,6.56421E0,6.039543E-1,-2.59175E0,1.8850836E0,5.223103E0,2.555584E0,7.135775E0,-2.8308868E-2,4.024099E0,4.6930246E0,8.64525E0,7.609288E0,3.5295162E0],"categories":[],"categories_nodes":[],"categories_segments":[],"categories_sizes":[],"default_left":[1,1,1,1,1,1,1,1,1,1,1,0,1,1,1,1,1,0,0,1,1,0,1,1,0,0,1,0,0,1,1,1,0,0,1,1,1,0,1,1,1,0,1,0,0,0,0,0,0,0,0,0,0,0,0,0,0,0,0,0,0,0,0],"id":6,"left_children":[1,3,5,7,9,11,13,15,17,19,21,-1,23,25,27,29,31,-1,-1,33,35,-1,37,39,-1,-1,41,-1,-1,43,45,47,-1,-1,49,51,53,-1,55,57,59,-1,61,-1,-1,-1,-1,-1,-1,-1,-1,-1,-1,-1,-1,-1,-1,-1,-1,-1,-1,-1,-1],"loss_changes":[1.5111484E3,6.1403516E2,2.7096875E2,2.3544727E2,1.8514062E2,8.1875E1,7.3765625E1,1.6823047E2,2.0384766E1,7.639844E1,1.2390137E1,0E0,4.5652344E1,4.964453E1,1.7243164E1,2.5057434E1,6.526074E1,0E0,0E0,5.623633E1,1.298891E2,0E0,2.0840576E1,5.055078E1,0E0,0E0,2.0933594E1,0E0,0E0,1.1919312E1,1.2238449E1,5.328711E1,0E0,0E0,4.7663086E1,1.4133387E1,4.711731E0,0E0,1.060791E1,1.2487583E1,3.3585938E1,0E0,6.56958E0,0E0,0E0,0E0,0E0,0E0,0E0,0E0,0E0,0E0,0E0,0E0,0E0,0E0,0E0,0E0,0E0,0E0,0E0,0E0,0E0],"parents":[2147483647,0,0,1,1,2,2,3,3,4,4,5,5,6,6,7,7,8,8,9,9,10,10,12,12,13,13,14,14,15,15,16,16,19,19,20,20,22,22,23,23,26,26,29,29,30,30,31,31,34,34,35,35,36,36,38,38,39,39,40,40,42,42],"right_children":[2,4,6,8,10,12,14,16,18,20,22,-1,24,26,28,30,32,-1,-1,34,36,-1,38,40,-1,-1,42,-1,-1,44,46,48,-1,-1,50,52,54,-1,56,58,60,-1,62,-1,-1,-1,-1,-1,-1,-1,-1,-1,-1,-1,-1,-1,-1,-1,-1,-1,-1,-1,-1],"split_conditions":[8.235294E-1,3.951049E-1,7.122357E-1,3.603866E-2,8.986014E-1,3.021148E-3,9.0105736E-1,1.6551724E-1,7.334071E-1,5.862069E-1,8.859649E-1,3.1785724E0,4.1261062E-1,4.5454547E-2,1.9469026E-1,9.473684E-1,9.734513E-1,2.7291338E0,1.7011071E0,2.6548672E-2,1.8362832E-1,2.676529E0,9.230769E-1,1.1061947E-2,2.2461324E0,3.1449158E0,7.8947365E-2,3.22587E0,1.2233895E0,8.4181416E-1,4.240924E-1,4.401815E-1,6.4772016E-1,3.7820664E-1,2.5641996E-1,5.1960784E-1,4.4405594E-1,3.0827808E-1,6.570997E-2,1.03074156E-1,1.4699888E-3,2.7431715E0,8.670695E-1,1.7582306E0,7.134576E-1,2.8811705E-1,1.1295183E0,2.0563703E0,2.605504E0,1.6707892E0,1.9692631E0,1.811863E-1,-7.77525E-1,5.655251E-1,1.566931E0,7.6667523E-1,2.1407325E0,-8.492661E-3,1.2072297E0,1.4079075E0,2.5935752E0,2.2827866E0,1.0588549E0],"split_indices":[0,7,6,9,7,6,6,4,8,4,5,0,8,7,8,5,8,0,0,8,8,0,7,8,0,0,5,0,0,8,1,1,0,0,6,0,7,0,6,2,2,0,6,0,0,0,0,0,0,0,0,0,0,0,0,0,0,0,0,0,0,0,0],"split_type":[0,0,0,0,0,0,0,0,0,0,0,0,0,0,0,0,0,0,0,0,0,0,0,0,0,0,0,0,0,0,0,0,0,0,0,0,0,0,0,0,0,0,0,0,0,0,0,0,0,0,0,0,0,0,0,0,0,0,0,0,0,0,0],"sum_hessian":[1.821E3,7.87E2,1.034E3,3.6E2,4.27E2,5.25E2,5.09E2,1.75E2,1.85E2,3.64E2,6.3E1,2.9E1,4.96E2,4.02E2,1.07E2,3.8E1,1.37E2,1.77E2,8E0,3.45E2,1.9E1,3.2E1,3.1E1,3.58E2,1.38E2,7.2E1,3.3E2,1.05E2,2E0,2.8E1,1E1,1.34E2,3E0,3E0,3.42E2,4E0,1.5E1,1E0,3E1,3E0,3.55E2,2.95E2,3.5E1,2.5E1,3E0,3E0,7E0,6.8E1,6.6E1,1.62E2,1.8E2,2E0,2E0,2E0,1.3E1,2E0,2.8E1,1E0,2E0,6E0,3.49E2,3.2E1,3E0],"tree_param":{"num_deleted":"0","num_feature":"10","num_nodes":"63","size_leaf_vector":"0"}},{"base_weights":[5.764228E0,4.8178573E0,6.229573E0,6.2016835E0,4.5381403E0,6.6569924E0,5.6787844E0,8.1709E0,5.723631E0,4.1140614E0,5.07267E0,6.437177E0,7.3971577E0,6.0163383E0,4.948395E0,8.540282E0,1.130394E0,5.861927E0,2.3938217E0,3.082596E0,4.297387E0,2.2430513E0,5.1415234E0,6.4493823E0,-2.1848679E-2,7.7276936E0,5.8897076E0,5.8175235E0,7.2040076E0,5.1082125E0,3.8772442E0,5.8934574E0,1.7012806E0,4.9936576E0,2.4311295E0,4.6978106E0,3.4587822E0,5.8901596E-1,2.4205544E0,5.389449E0,4.1718345E0,6.196972E0,7.060708E0,2.0430222E0,7.758555E0,4.0158587E0,6.5907855E0,5.142985E0,6.3088264E0,5.320117E0,4.040608E0,5.4416447E0,2.6369116E0,2.8010912E0,1.1521232E0,3.7120626E0,5.0482125E0,3.6287928E0,2.0315511E0,1.5925394E0,5.4258204E0,4.261605E0,-2.3693085E-2,5.0781155E0,6.400741E0,2.3825798E0,7.1410656E0,3.242419E0,7.8084674E0,4.168879E0,5.66015E0,7.945917E0,6.132754E0,1.5018959E0,5.33926E0,1.6943836E0,4.2461576E0,1.6448923E0,4.181465E0],"categories":[],"categories_nodes":[],"categories_segments":[],"categories_sizes":[],"default_left":[1,1,1,1,1,1,1,1,1,1,1,1,1,1,1,0,0,1,0,1,1,1,1,1,0,1,1,1,0,1,1,0,0,0,1,1,1,0,0,1,1,1,1,0,1,0,0,1,1,1,1,0,1,0,0,0,0,0,0,0,0,0,0,0,0,0,0,0,0,0,0,0,0,0,0,0,0,0,0],"id":7,"left_children":[1,3,5,7,9,11,13,15,17,19,21,23,25,27,29,-1,-1,31,-1,33,35,37,39,41,-1,43,45,47,-1,49,51,-1,-1,-1,53,55,57,-1,-1,59,61,63,65,-1,67,-1,-1,69,71,73,75,-1,77,-1,-1,-1,-1,-1,-1,-1,-1,-1,-1,-1,-1,-1,-1,-1,-1,-1,-1,-1,-1,-1,-1,-1,-1,-1,-1],"loss_changes":[7.72375E2,2.0603906E2,2.489336E2,4.6430176E1,9.405957E1,6.301953E1,1.0311719E2,3.4556885E1,2.4189209E1,4.1212402E1,3.132959E1,4.2078125E1,2.8728027E1,4.4041016E1,1.0323242E1,0E0,0E0,3.3740234E-1,0E0,4.637442E1,6.501367E1,6.2942886E-1,2.8964355E1,3.818164E1,0E0,5.025879E0,1.4257446E1,7.26084E1,0E0,1.2437988E1,3.8041016E1,0E0,0E0,0E0,1.4280579E1,3.6871582E1,1.2524719E1,0E0,0E0,1.4421387E1,1.8179443E1,5.504492E1,3.862207E1,0E0,1.2807617E0,0E0,0E0,4.6427734E1,2.8657227E0,8.984375E-1,6.7910767E0,0E0,1.91698E1,0E0,0E0,0E0,0E0,0E0,0E0,0E0,0E0,0E0,0E0,0E0,0E0,0E0,0E0,0E0,0E0,0E0,0E0,0E0,0E0,0E0,0E0,0E0,0E0,0E0,0E0],"parents":[2147483647,0,0,1,1,2,2,3,3,4,4,5,5,6,6,7,7,8,8,9,9,10,10,11,11,12,12,13,13,14,14,17,17,19,19,20,20,21,21,22,22,23,23,25,25,26,26,27,27,29,29,30,30,34,34,35,35,36,36,39,39,40,40,41,41,42,42,44,44,47,47,48,48,49,49,50,50,52,52],"right_children":[2,4,6,8,10,12,14,16,18,20,22,24,26,28,30,-1,-1,32,-1,34,36,38,40,42,-1,44,46,48,-1,50,52,-1,-1,-1,54,56,58,-1,-1,60,62,64,66,-1,68,-1,-1,70,72,74,76,-1,78,-1,-1,-1,-1,-1,-1,-1,-1,-1,-1,-1,-1,-1,-1,-1,-1,-1,-1,-1,-1,-1,-1,-1,-1,-1,-1],"split_conditions":[7.156863E-1,2.631579E-2,2.2027972E-1,1.2084592E-1,4.6078432E-1,8.836858E-1,4.1261062E-1,5.431416E-1,9.480198E-1,5.7401814E-2,1.03960395E-1,8.8053095E-1,1.6924778E-1,6.5384614E-1,8.960177E-1,2.5620847E0,3.391182E-1,5.5973446E-1,7.1814656E-1,2.1818308E-3,7.311947E-1,5.1960784E-1,7.765487E-1,6.192244E-1,-6.554604E-3,4.4247787E-3,9.019608E-1,9.509804E-1,2.1612024E0,5.853474E-1,4.8601398E-1,1.7680373E0,5.103842E-1,1.4980973E0,4.07855E-2,1.6482301E-1,3.2352942E-1,1.767048E-1,7.2616637E-1,1.0344828E-2,9.756601E-1,6.0840707E-2,1.7730497E-2,6.129067E-1,6.275862E-1,1.2047577E0,1.9772357E0,4.0500976E-2,4.2598188E-1,7.30198E-2,4.689655E-1,1.6324935E0,1.6098692E-1,8.403274E-1,3.4563696E-1,1.1136189E0,1.5144638E0,1.0886378E0,6.0946536E-1,4.7776183E-1,1.6277462E0,1.2784815E0,-7.1079256E-3,1.5234348E0,1.9202224E0,7.1477395E-1,2.1423197E0,9.7272575E-1,2.3425403E0,1.2506638E0,1.6980451E0,2.3837752E0,1.8398262E0,4.505688E-1,1.6017781E0,5.083151E-1,1.2738473E0,4.9346772E-1,1.2544396E0],"split_indices":[0,5,7,6,0,6,8,8,1,6,1,8,8,7,8,0,0,8,0,9,8,0,8,1,0,8,0,0,0,6,7,0,0,0,6,8,0,0,0,4,1,8,3,0,4,0,0,9,6,1,4,0,2,0,0,0,0,0,0,0,0,0,0,0,0,0,0,0,0,0,0,0,0,0,0,0,0,0,0],"split_type":[0,0,0,0,0,0,0,0,0,0,0,0,0,0,0,0,0,0,0,0,0,0,0,0,0,0,0,0,0,0,0,0,0,0,0,0,0,0,0,0,0,0,0,0,0,0,0,0,0,0,0,0,0,0,0,0,0,0,0,0,0,0,0,0,0,0,0,0,0,0,0,0,0,0,0,0,0,0,0],"sum_hessian":[1.821E3,6.04E2,1.217E3,9.8E1,5.06E2,6.79E2,5.38E2,1.6E1,8.2E1,2.87E2,2.19E2,5.31E2,1.48E2,3.63E2,1.75E2,1.5E1,1E0,7.8E1,4E0,4.6E1,2.41E2,6E0,2.13E2,5.3E2,1E0,1.18E2,3E1,3.16E2,4.7E1,1.49E2,2.6E1,7.7E1,1E0,1E1,3.6E1,1.6E2,8.1E1,1E0,5E0,1.66E2,4.7E1,3.83E2,1.47E2,1E0,1.17E2,1E1,2E1,1.38E2,1.78E2,1.21E2,2.8E1,1E1,1.6E1,2.7E1,9E0,4.5E1,1.15E2,7.1E1,1E1,2E0,1.64E2,4.6E1,1E0,6.3E1,3.2E2,3E0,1.44E2,2E0,1.15E2,5.1E1,8.7E1,1.3E1,1.65E2,1E0,1.2E2,3E0,2.5E1,1.1E1,5E0],"tree_param":{"num_deleted":"0","num_feature":"10","num_nodes":"79","size_leaf_vector":"0"}},{"base_weights":[4.060833E0,3.2443435E0,4.3239064E0,4.587482E0,3.004418E0,3.9328394E0,4.6315103E0,6.295512E0,4.1314125E0,2.8751373E0,4.135659E0,5.138704E0,3.8303804E0,4.7787366E0,3.9101455E0,4.2252917E0,1.0957388E0,3.1412847E0,2.3585439E0,2.993148E0,4.7785916E0,6.727757E0,3.3262289E0,3.6805236E0,4.843925E0,5.0382886E0,4.3586273E0,7.878049E-1,4.100625E0,2.5369282E0,4.427066E0,3.2376585E0,1.5697818E0,2.5067503E0,7.910897E-1,8.0677986E-1,3.0851207E0,1.8938473E0,3.7203724E0,2.686335E0,3.802656E0,4.901899E0,1.9152145E0,4.163821E0,5.345097E0,4.54744E0,3.0796382E0,-2.9071743E0,2.2588239E0,4.264729E0,2.3335032E0,2.9545298E0,4.0113587E0,2.8281946E0,1.0194956E0,2.7309396E0,1.4756688E0,3.9635918E-1,2.5665627E0,7.9135895E-1,2.176571E0,4.2514973E0,2.3508792E0,3.4781325E0,4.2688737E0,1.2512131E0,4.9377117E0,4.33711E0,1.8527603E0,5.7508826E0,4.8326454E0,4.168084E0,4.923125E0,2.4503987E0,3.6737103E0,6.580887E-1,2.7675004E0,4.305703E0,1.2997932E0],"categories":[],"categories_nodes":[],"categories_segments":[],"categories_sizes":[],"default_left":[1,1,1,1,1,1,1,0,1,1,1,1,1,1,1,1,0,1,1,1,0,0,1,1,1,1,1,1,1,0,0,1,1,1,1,0,0,1,0,1,1,1,0,1,1,1,1,0,1,1,0,0,0,0,0,0,0,0,0,0,0,0,0,0,0,0,0,0,0,0,0,0,0,0,0,0,0,0,0],"id":8,"left_children":[1,3,5,7,9,11,13,-1,15,17,19,21,23,25,27,29,-1,31,33,35,-1,-1,37,39,41,43,45,47,49,-1,-1,51,53,55,57,-1,-1,59,-1,61,63,65,-1,67,69,71,73,-1,75,77,-1,-1,-1,-1,-1,-1,-1,-1,-1,-1,-1,-1,-1,-1,-1,-1,-1,-1,-1,-1,-1,-1,-1,-1,-1,-1,-1,-1,-1],"loss_changes":[3.7733203E2,1.3058691E2,1.471875E2,2.5403442E1,4.412207E1,5.5930664E1,6.245508E1,0E0,1.1044434E1,4.030005E1,1.287561E1,1.07227295E2,6.844336E1,4.673535E1,7.7059814E1,6.82428E0,0E0,2.9145508E1,2.6358398E1,7.2836304E-1,0E0,0E0,5.939148E0,5.0375E1,2.4969482E0,8.050098E1,4.5884766E1,5.5485264E1,2.6877197E1,0E0,0E0,3.458838E1,7.503975E0,2.1628479E1,7.3927197E0,0E0,0E0,4.5944786E-1,0E0,2.0457703E1,5.202588E1,2.7124023E0,0E0,3.361438E1,3.0432617E1,9.979004E0,4.081421E0,0E0,3.8785324E0,8.374268E0,0E0,0E0,0E0,0E0,0E0,0E0,0E0,0E0,0E0,0E0,0E0,0E0,0E0,0E0,0E0,0E0,0E0,0E0,0E0,0E0,0E0,0E0,0E0,0E0,0E0,0E0,0E0,0E0,0E0],"parents":[2147483647,0,0,1,1,2,2,3,3,4,4,5,5,6,6,8,8,9,9,10,10,11,11,12,12,13,13,14,14,15,15,17,17,18,18,19,19,22,22,23,23,24,24,25,25,26,26,27,27,28,28,31,31,32,32,33,33,34,34,37,37,39,39,40,40,41,41,43,43,44,44,45,45,46,46,48,48,49,49],"right_children":[2,4,6,8,10,12,14,-1,16,18,20,22,24,26,28,30,-1,32,34,36,-1,-1,38,40,42,44,46,48,50,-1,-1,52,54,56,58,-1,-1,60,-1,62,64,66,-1,68,70,72,74,-1,76,78,-1,-1,-1,-1,-1,-1,-1,-1,-1,-1,-1,-1,-1,-1,-1,-1,-1,-1,-1,-1,-1,-1,-1,-1,-1,-1,-1,-1,-1],"split_conditions":[5.7843137E-1,2.631579E-2,6.3972807E-1,1.3384956E-1,9.1958046E-1,3.021148E-3,3.3916086E-1,1.8886538E0,5.196079E-1,8.684211E-1,2.6283985E-1,4.4358408E-1,7.907802E-1,2.1570796E-1,8.235294E-1,2.900165E-1,3.2872164E-1,9.977876E-1,8.475177E-1,9.4755244E-1,1.4335775E0,2.0183272E0,6.7647064E-1,2.2583082E-1,5.6896555E-1,6.0840707E-2,7.98716E-1,2.8135312E-1,7.2758615E-1,7.610785E-1,1.3281198E0,4.459571E-1,6.4187846E-3,1.474115E-1,6.1649848E-2,2.4203397E-1,9.255362E-1,4.009127E-3,1.1161118E0,2.603135E-1,1.8421052E-1,1.8051884E-3,5.745644E-1,4.20354E-2,1.670354E-1,1.5957448E-1,1.4335665E-1,-8.721523E-1,4.113475E-1,7.1052635E-1,7.00051E-1,8.86359E-1,1.2034076E0,8.484584E-1,3.058487E-1,8.1928194E-1,4.4270065E-1,1.1890776E-1,7.699688E-1,2.374077E-1,6.5297127E-1,1.2754493E0,7.052638E-1,1.0434397E0,1.2806622E0,3.7536395E-1,1.4813136E0,1.301133E0,5.558281E-1,1.7252649E0,1.4497937E0,1.2504253E0,1.4769375E0,7.3511964E-1,1.1021131E0,1.9742662E-1,8.3025014E-1,1.291711E0,3.89938E-1],"split_indices":[0,5,6,8,7,6,7,0,0,5,6,8,3,8,0,1,0,8,3,7,0,0,0,6,4,8,6,1,4,0,0,1,2,2,9,0,0,2,0,1,5,2,0,8,8,3,7,0,3,5,0,0,0,0,0,0,0,0,0,0,0,0,0,0,0,0,0,0,0,0,0,0,0,0,0,0,0,0,0],"split_type":[0,0,0,0,0,0,0,0,0,0,0,0,0,0,0,0,0,0,0,0,0,0,0,0,0,0,0,0,0,0,0,0,0,0,0,0,0,0,0,0,0,0,0,0,0,0,0,0,0,0,0,0,0,0,0,0,0,0,0,0,0,0,0,0,0,0,0,0,0,0,0,0,0,0,0,0,0,0,0],"sum_hessian":[1.821E3,4.47E2,1.374E3,6.5E1,3.82E2,6.11E2,7.63E2,1.1E1,5.4E1,3.46E2,3.6E1,4.4E1,5.67E2,6.29E2,1.34E2,5.2E1,2E0,2.25E2,1.21E2,1.5E1,2.1E1,2.2E1,2.2E1,4.98E2,6.9E1,3.82E2,2.47E2,8E0,1.26E2,7E0,4.5E1,2.11E2,1.4E1,1.1E2,1.1E1,1E0,1.4E1,6E0,1.6E1,5.7E1,4.41E2,6.7E1,2E0,1.03E2,2.79E2,2.13E2,3.4E1,2E0,6E0,1.14E2,1.2E1,1.58E2,5.3E1,3E0,1.1E1,8.9E1,2.1E1,1E1,1E0,2E0,4E0,8E0,4.9E1,2.65E2,1.76E2,1E0,6.6E1,9.5E1,8E0,1.5E2,1.29E2,1.12E2,1.01E2,1.9E1,1.5E1,2E0,4E0,1.12E2,2E0],"tree_param":{"num_deleted":"0","num_feature":"10","num_nodes":"79","size_leaf_vector":"0"}},{"base_weights":[2.8619008E0,2.5286832E0,3.191615E0,2.8945255E0,2.0902748E0,3.8040404E0,3.0699203E0,2.4812872E0,3.2422626E0,1.9209453E0,2.9188988E0,4.0202684E0,2.392733E0,3.0247474E0,5.2803E0,1.9967163E0,2.9242976E0,3.4110038E0,2.265112E0,2.0750935E0,1.3918376E0,2.1789238E0,3.4652226E0,3.0257611E0,4.65619E0,2.6336823E0,6.500416E-1,2.221004E0,3.0714943E0,1.1063347E0,5.5162716E0,2.255504E0,6.805788E-1,3.5159652E0,2.370141E0,3.0607638E0,3.9582999E0,1.8440387E0,2.7758646E0,2.1954422E0,1.0033984E0,1.1963296E0,2.5449958E0,5.797704E-1,2.2662084E0,1.9545784E0,3.6873877E0,3.1918359E0,2.2061927E0,5.293873E0,3.8581944E0,2.623292E0,3.2037437E-1,3.0780888E0,-7.986069E-1,1.2380301E0,2.567671E0,-1.4451765E0,9.9706143E-1,3.687039E0,4.1301823E-1,3.2161078E0,1.4779868E0,2.7795138E0,3.7761817E0,4.7382927E0,3.6051042E0,1.9657995E0,6.829052E-1,1.9044473E0,2.7166538E0,-2.1497555E0,2.1043909E0,4.962654E-1,1.8096431E0,1.4003029E0,4.1981325E0,2.3281643E0,-1.4346886E-1,3.7435818E0,9.7268486E-1,5.3838854E0,9.367027E-1,4.092478E0,9.0223694E-1,1.4984258E0,3.0415652E0,-5.25795E-1,6.372506E-1,4.0275035E0,3.0345325E0],"categories":[],"categories_nodes":[],"categories_segments":[],"categories_sizes":[],"default_left":[1,1,1,1,1,1,1,1,1,1,1,1,1,1,1,1,1,1,1,1,1,1,1,1,1,0,0,1,1,0,0,1,1,1,1,1,1,1,0,1,1,1,1,0,0,1,1,0,0,1,1,1,1,1,0,0,0,0,0,0,0,0,0,0,0,0,0,0,0,0,0,0,0,0,0,0,0,0,0,0,0,0,0,0,0,0,0,0,0,0,0],"id":9,"left_children":[1,3,5,7,9,11,13,15,17,19,21,23,25,27,29,31,33,35,37,39,41,43,45,47,49,-1,-1,51,53,-1,-1,55,57,59,61,63,65,67,-1,69,71,73,75,-1,-1,77,79,-1,-1,81,83,85,87,89,-1,-1,-1,-1,-1,-1,-1,-1,-1,-1,-1,-1,-1,-1,-1,-1,-1,-1,-1,-1,-1,-1,-1,-1,-1,-1,-1,-1,-1,-1,-1,-1,-1,-1,-1,-1,-1],"loss_changes":[1.9210645E2,1.4006396E2,5.6291992E1,6.2941895E1,5.3042725E1,3.5239746E1,6.0513184E1,4.3535156E1,3.596826E1,2.5658203E1,2.0343872E1,6.559729E1,7.5258026E0,2.1470215E1,7.6862793E0,3.695276E1,3.035614E1,3.0822021E1,3.9138947E0,3.2491943E1,1.5442383E1,3.1527252E0,5.5460205E0,3.5888672E-2,1.7740356E1,0E0,0E0,3.356659E1,2.0551758E1,0E0,0E0,2.6677612E1,1.4896219E1,2.7672913E1,4.354956E1,1.7874756E1,6.059204E0,2.333435E0,0E0,3.1378662E1,1.0520028E2,3.0015778E1,1.4937012E1,0E0,0E0,5.820629E0,1.2402954E0,0E0,0E0,1.0252686E1,2.1931274E1,1.2851013E1,2.7482417E0,1.705664E1,0E0,0E0,0E0,0E0,0E0,0E0,0E0,0E0,0E0,0E0,0E0,0E0,0E0,0E0,0E0,0E0,0E0,0E0,0E0,0E0,0E0,0E0,0E0,0E0,0E0,0E0,0E0,0E0,0E0,0E0,0E0,0E0,0E0,0E0,0E0,0E0,0E0],"parents":[2147483647,0,0,1,1,2,2,3,3,4,4,5,5,6,6,7,7,8,8,9,9,10,10,11,11,12,12,13,13,14,14,15,15,16,16,17,17,18,18,19,19,20,20,21,21,22,22,23,23,24,24,27,27,28,28,31,31,32,32,33,33,34,34,35,35,36,36,37,37,39,39,40,40,41,41,42,42,45,45,46,46,49,49,50,50,51,51,52,52,53,53],"right_children":[2,4,6,8,10,12,14,16,18,20,22,24,26,28,30,32,34,36,38,40,42,44,46,48,50,-1,-1,52,54,-1,-1,56,58,60,62,64,66,68,-1,70,72,74,76,-1,-1,78,80,-1,-1,82,84,86,88,90,-1,-1,-1,-1,-1,-1,-1,-1,-1,-1,-1,-1,-1,-1,-1,-1,-1,-1,-1,-1,-1,-1,-1,-1,-1,-1,-1,-1,-1,-1,-1,-1,-1,-1,-1,-1,-1],"split_conditions":[8.7254906E-1,4.4405594E-1,5.944056E-2,3.6916964E-2,8.986014E-1,2.0022124E-1,9.18429E-1,4.401815E-1,7.758621E-1,4.896865E-1,2.9310346E-1,1.3827434E-1,9.068966E-1,8.1560284E-2,6.889439E-2,1.468749E-1,3.35177E-1,5.334158E-1,9.75862E-1,5.344827E-1,7.9432625E-1,9.3356645E-1,1.388717E-2,1.2942478E-1,1.6261062E-1,7.901047E-1,1.9501248E-1,6.278878E-1,9.418317E-1,3.3190042E-1,1.6548816E0,1.9637462E-1,2.1349558E-1,3.3653095E-2,4.830858E-1,3.0496454E-1,4.5619333E-1,8.5294116E-1,8.3275944E-1,3.689655E-1,1.8362832E-1,5.6064355E-1,3.7751377E-2,1.7393112E-1,6.7986256E-1,1.28931925E-2,2.3536788E-1,9.575508E-1,6.6185784E-1,9.8413897E-1,8.6551726E-1,6.37931E-1,9.181416E-2,1.73716E-2,-2.3958208E-1,3.7140903E-1,7.7030134E-1,-4.3355295E-1,2.9911843E-1,1.1061118E0,1.2390547E-1,9.6483237E-1,4.4339606E-1,8.338542E-1,1.1328546E0,1.4214878E0,1.0815313E0,5.8973986E-1,2.0487157E-1,5.7133424E-1,8.149962E-1,-6.4492667E-1,6.3131726E-1,1.4887963E-1,5.42893E-1,4.2009088E-1,1.2594398E0,6.984493E-1,-4.304066E-2,1.1230745E0,2.9180548E-1,1.6151657E0,2.8101084E-1,1.2277434E0,2.706711E-1,4.4952777E-1,9.1246957E-1,-1.577385E-1,1.911752E-1,1.2082511E0,9.103598E-1],"split_indices":[0,7,7,9,7,8,6,1,4,1,4,8,4,3,1,2,8,1,4,4,3,7,2,8,8,0,0,1,1,0,0,6,8,9,1,3,6,0,0,4,8,1,9,0,0,2,2,0,0,6,4,4,8,6,0,0,0,0,0,0,0,0,0,0,0,0,0,0,0,0,0,0,0,0,0,0,0,0,0,0,0,0,0,0,0,0,0,0,0,0,0],"split_type":[0,0,0,0,0,0,0,0,0,0,0,0,0,0,0,0,0,0,0,0,0,0,0,0,0,0,0,0,0,0,0,0,0,0,0,0,0,0,0,0,0,0,0,0,0,0,0,0,0,0,0,0,0,0,0,0,0,0,0,0,0,0,0,0,0,0,0,0,0,0,0,0,0,0,0,0,0,0,0,0,0,0,0,0,0,0,0,0,0,0,0],"sum_hessian":[1.821E3,9.1E2,9.11E2,4.93E2,4.17E2,1.46E2,7.65E2,2.29E2,2.64E2,3.49E2,6.8E1,1.25E2,2.1E1,7.52E2,1.3E1,1.12E2,1.17E2,2.23E2,4.1E1,2.68E2,8.1E1,3.1E1,3.7E1,5.1E1,7.4E1,1.8E1,3E0,4.4E1,7.08E2,1E0,1.2E1,9.3E1,1.9E1,5.4E1,6.3E1,1.4E2,8.3E1,2.5E1,1.6E1,2.4E2,2.8E1,7.1E1,1E1,2E0,2.9E1,6E0,3.1E1,4E1,1.1E1,3.8E1,3.6E1,3.6E1,8E0,7.07E2,1E0,2.3E1,7E1,2E0,1.7E1,5.1E1,3E0,3.1E1,3.2E1,1.04E2,3.6E1,2.2E1,6.1E1,2.2E1,3E0,1.57E2,8.3E1,7E0,2.1E1,3.4E1,3.7E1,7E0,3E0,5E0,1E0,3E1,1E0,3.7E1,1E0,3.3E1,3E0,1.1E1,2.5E1,2E0,6E0,2.7E1,6.8E2],"tree_param":{"num_deleted":"0","num_feature":"10","num_nodes":"91","size_leaf_vector":"0"}},{"base_weights":[2.018517E0,1.8049288E0,2.3186593E0,2.939922E0,1.759099E0,2.4397097E0,1.7455498E0,1.0243963E0,3.631177E0,1.836084E0,1.2524098E0,1.5756683E-1,2.454273E0,1.9092753E0,5.7526374E-1,3.0535462E0,-8.612175E-1,4.694564E0,2.3257115E0,1.2924176E0,1.9513522E0,9.76247E-1,1.9607306E0,3.2003275E-1,-5.7421368E-2,2.3193328E0,2.7608836E0,1.200868E0,2.193533E0,-1.0834547E0,1.2965751E0,3.535752E0,3.2125854E-1,5.912056E-1,-1.5604279E0,8.2289124E-1,4.912334E0,9.000702E-1,2.4758048E0,9.7275364E-1,2.4390426E0,3.4603348E0,1.8932636E0,1.0925251E0,-1.4980538E0,2.3094354E0,3.6440802E-1,3.8446808E-1,9.5581055E-2,-8.394241E-2,-2.1896362E-3,2.8668818E0,2.1816876E0,3.2710698E0,2.4451282E0,1.8467366E0,8.8142866E-1,1.8886906E0,3.2659392E0,-1.5828171E0,7.066784E-1,5.3331755E-2,1.843202E0,-5.2955627E-2,9.39764E-1,1.2303864E0,-1.176193E0,-2.2739792E-1,2.5267346E0,1.231781E0,3.5947235E0,2.0923247E0,1.6622146E0,1.4359919E0,4.8745853E-1,-9.2760086E-2,-1.8261871E0,1.0511916E0,2.5693662E0,1.3292875E0,-4.803772E-1,2.4909508E0,4.1069098E0,2.0367668E0,2.7880046E0,2.4973984E0,4.4709415E0,2.6129842E0,1.6858124E0,1.098239E0,2.5632572E-1,9.260869E-1,2.1485553E0,3.4356122E0,2.7558517E-1,-1.7875538E0,-3.8193512E-1,2.8716788E-1,-1.982816E-1,5.584251E-1,2.7593384E0],"categories":[],"categories_nodes":[],"categories_segments":[],"categories_sizes":[],"default_left":[1,1,1,1,1,1,1,1,1,1,1,1,1,1,1,1,1,1,1,1,1,1,1,1,1,1,1,1,1,1,1,0,0,1,0,0,0,0,0,1,1,1,1,1,1,1,1,0,0,0,0,1,1,1,1,0,1,1,1,1,0,1,1,0,0,0,0,0,0,0,0,0,0,0,0,0,0,0,0,0,0,0,0,0,0,0,0,0,0,0,0,0,0,0,0,0,0,0,0,0,0],"id":10,"left_children":[1,3,5,7,9,11,13,15,17,19,21,23,25,27,29,31,33,35,37,39,41,43,45,47,49,51,53,55,57,59,61,-1,-1,63,-1,-1,-1,-1,-1,65,67,69,71,73,75,77,79,-1,-1,-1,-1,81,83,85,87,-1,89,91,93,95,-1,97,99,-1,-1,-1,-1,-1,-1,-1,-1,-1,-1,-1,-1,-1,-1,-1,-1,-1,-1,-1,-1,-1,-1,-1,-1,-1,-1,-1,-1,-1,-1,-1,-1,-1,-1,-1,-1,-1,-1],"loss_changes":[1.12617676E2,5.0433838E1,4.8050293E1,4.9244904E1,3.7878174E1,2.0219238E1,2.4768433E1,4.8544086E1,2.9340027E1,5.3377686E1,2.5275879E1,1.9301799E-1,1.9083008E1,2.1127533E1,2.2940926E1,6.7692566E0,8.03138E0,8.604706E0,9.812851E-1,5.5906433E1,5.778711E1,3.098278E1,2.0310959E1,6.639987E-3,4.210606E-3,2.6454834E1,2.1482056E1,5.7996025E0,2.0965576E1,6.482093E0,8.736372E0,0E0,0E0,7.233492E-1,0E0,0E0,0E0,0E0,0E0,7.120569E1,8.524658E0,3.3588867E0,2.9131104E1,1.9666397E1,2.136222E0,7.437851E0,7.159487E0,0E0,0E0,0E0,0E0,2.8927795E1,2.5163208E1,5.1030823E1,1.0507324E1,0E0,3.242241E0,1.4770081E1,7.678711E0,5.4659367E-1,0E0,3.5112157E-1,9.052391E0,0E0,0E0,0E0,0E0,0E0,0E0,0E0,0E0,0E0,0E0,0E0,0E0,0E0,0E0,0E0,0E0,0E0,0E0,0E0,0E0,0E0,0E0,0E0,0E0,0E0,0E0,0E0,0E0,0E0,0E0,0E0,0E0,0E0,0E0,0E0,0E0,0E0,0E0],"parents":[2147483647,0,0,1,1,2,2,3,3,4,4,5,5,6,6,7,7,8,8,9,9,10,10,11,11,12,12,13,13,14,14,15,15,16,16,17,17,18,18,19,19,20,20,21,21,22,22,23,23,24,24,25,25,26,26,27,27,28,28,29,29,30,30,33,33,39,39,40,40,41,41,42,42,43,43,44,44,45,45,46,46,51,51,52,52,53,53,54,54,56,56,57,57,58,58,59,59,61,61,62,62],"right_children":[2,4,6,8,10,12,14,16,18,20,22,24,26,28,30,32,34,36,38,40,42,44,46,48,50,52,54,56,58,60,62,-1,-1,64,-1,-1,-1,-1,-1,66,68,70,72,74,76,78,80,-1,-1,-1,-1,82,84,86,88,-1,90,92,94,96,-1,98,100,-1,-1,-1,-1,-1,-1,-1,-1,-1,-1,-1,-1,-1,-1,-1,-1,-1,-1,-1,-1,-1,-1,-1,-1,-1,-1,-1,-1,-1,-1,-1,-1,-1,-1,-1,-1,-1,-1],"split_conditions":[6.5936553E-1,2.9867258E-2,3.5815603E-1,1.5486726E-2,7.931416E-1,5.206896E-1,7.017544E-1,3.318584E-3,5.566465E-1,1.5486726E-1,4.172414E-1,2.6769912E-1,2.631579E-2,4.0780142E-1,3.340708E-1,8.9215684E-1,3.4282178E-1,1.3475177E-1,9.019608E-1,6.4685315E-1,2.632743E-1,1.6822368E-1,9.2156863E-1,7.647059E-1,8.627451E-1,4.1749173E-1,1.659292E-1,3.6013985E-1,4.030528E-1,7.681035E-1,2.710396E-1,1.0607257E0,9.637757E-2,3.8235295E-1,-4.6812838E-1,2.4686737E-1,1.4737003E0,2.7002108E-1,7.4274147E-1,1.02876104E-1,6.8965517E-3,1.3829787E-1,4.5808157E-1,9.6902657E-1,2.4876237E-1,2.5679758E-1,9.867257E-1,1.1534043E-1,2.8674318E-2,-2.5182726E-2,-6.568909E-4,7.689655E-1,7.4917495E-1,1.4269912E-1,9.083722E-1,5.54021E-1,8.168225E-1,9.313725E-1,7.62069E-1,8.8235295E-1,2.1200353E-1,2.310231E-1,7.77568E-1,-1.5886689E-2,2.8192922E-1,3.6911592E-1,-3.5285792E-1,-6.821938E-2,7.580204E-1,3.695343E-1,1.0784171E0,6.2769747E-1,4.986644E-1,4.3079758E-1,1.4623757E-1,-2.7828027E-2,-5.4785615E-1,3.1535748E-1,7.708099E-1,3.9878628E-1,-1.4411317E-1,7.4728525E-1,1.232073E0,6.1103004E-1,8.364014E-1,7.4921954E-1,1.3412825E0,7.838953E-1,5.0574374E-1,3.294717E-1,7.689772E-2,2.7782607E-1,6.445666E-1,1.0306838E0,8.2675554E-2,-5.3626615E-1,-1.1458054E-1,8.615036E-2,-5.948448E-2,1.6752754E-1,8.278015E-1],"split_indices":[6,8,3,8,8,4,5,8,6,8,4,8,5,3,8,0,1,3,0,7,8,2,0,0,0,1,8,7,1,4,1,0,0,0,0,0,0,0,0,8,4,3,6,8,1,6,8,0,0,0,0,4,1,8,2,0,2,0,4,0,0,1,6,0,0,0,0,0,0,0,0,0,0,0,0,0,0,0,0,0,0,0,0,0,0,0,0,0,0,0,0,0,0,0,0,0,0,0,0,0,0],"split_type":[0,0,0,0,0,0,0,0,0,0,0,0,0,0,0,0,0,0,0,0,0,0,0,0,0,0,0,0,0,0,0,0,0,0,0,0,0,0,0,0,0,0,0,0,0,0,0,0,0,0,0,0,0,0,0,0,0,0,0,0,0,0,0,0,0,0,0,0,0,0,0,0,0,0,0,0,0,0,0,0,0,0,0,0,0,0,0,0,0,0,0,0,0,0,0,0,0,0,0,0,0],"sum_hessian":[1.821E3,1.068E3,7.53E2,3.9E1,1.029E3,6.19E2,1.34E2,1.1E1,2.8E1,8.91E2,1.38E2,4E0,6.15E2,1.17E2,1.7E1,5E0,6E0,1.4E1,1.4E1,1.58E2,7.33E2,1.01E2,3.7E1,2E0,2E0,4.33E2,1.82E2,3.5E1,8.2E1,5E0,1.2E1,4E0,1E0,2E0,4E0,1E0,1.3E1,2E0,1.2E1,1.25E2,3.3E1,2.5E1,7.08E2,9.7E1,4E0,3E1,7E0,1E0,1E0,1E0,1E0,8.3E1,3.5E2,6.6E1,1.16E2,1E1,2.5E1,6.6E1,1.6E1,4E0,1E0,4E0,8E0,1E0,1E0,1.12E2,1.3E1,1E0,3.2E1,2E0,2.3E1,3.76E2,3.32E2,6.1E1,3.6E1,1E0,3E0,6E0,2.4E1,3E0,4E0,6.6E1,1.7E1,2.86E2,6.4E1,4.2E1,2.4E1,9.3E1,2.3E1,1.8E1,7E0,1.5E1,5.1E1,1.5E1,1E0,3E0,1E0,2E0,2E0,4E0,4E0],"tree_param":{"num_deleted":"0","num_feature":"10","num_nodes":"101","size_leaf_vector":"0"}},{"base_weights":[1.423288E0,1.5864124E0,1.2077062E0,1.3023094E0,1.7381667E0,1.6065449E0,1.0686363E0,1.7125404E0,9.864028E-1,1.6646848E0,2.3757548E0,1.268501E0,2.4239552E0,6.10233E-1,1.144887E0,2.6711752E0,1.5194696E0,1.3927143E0,6.1175525E-1,2.261404E0,1.5123802E0,-1.498889E0,2.580799E0,1.7658948E0,7.396728E-1,1.7725134E0,3.2129576E0,1.4695015E0,2.7320638E-1,1.0460821E0,1.6322598E0,6.5606403E-1,3.4183817E0,6.27879E-1,1.6108263E0,1.9908278E0,-4.930776E-2,1.207028E0,-6.9831586E-1,1.3162144E0,2.5585413E0,2.9815676E0,1.4226625E0,1.1764425E0,2.7604134E0,4.0047613E-1,2.3738194E0,-5.085991E-1,9.2607033E-1,2.7260492E0,1.1979507E0,3.9518921E0,7.4828446E-1,1.1115237E0,3.6048381E0,-2.0938009E-1,8.110308E-1,1.4393314E0,9.594541E-1,2.0731392E0,1.0556097E0,2.2953656E0,-2.7293077E-1,6.994591E-1,3.5371735E0,1.3453064E0,-2.81735E-1,1.9660846E0,1.1552286E0,4.1366306E-1,2.1322236E0,1.4131181E0,-4.7379413E-1,1.0563017E0,3.6560268E0,2.0925221E-1,-1.6715792E0,-1.46717075E-2,1.8613347E0,2.8803782E0,1.4182167E0,3.0302815E0,8.57502E-1,-1.7111164E-1,1.4843485E0,3.3758926E-1,1.2391005E0,3.0723147E0,1.7030624E0,1.637964E0,-1.0301781E-1,2.051935E0,4.4459634E0,1.3360469E-1,-1.1775239E0,1.1345723E0,-4.5100486E-1,2.9134846E-1,3.505244E0,-6.272545E-1,1.5030943E0,2.0005035E0,4.698648E0,-6.727028E-2,1.3767681E0,1.984675E0,4.7081757E-1,9.833889E-1,-6.781125E-1,1.4587332E0,3.592698E-1,1.961089E0,1.0175738E0,8.3598226E-1,1.3375565E0,5.710821E0,1.6865375E0,8.194919E-1,2.8577385E0],"categories":[],"categories_nodes":[],"categories_segments":[],"categories_sizes":[],"default_left":[1,1,1,1,1,1,1,1,1,1,1,1,1,1,1,1,1,1,1,1,1,0,1,1,1,1,1,1,1,1,1,1,1,1,1,1,1,1,1,1,1,1,1,1,1,1,1,1,1,1,1,1,1,1,0,1,1,1,1,1,1,0,0,0,0,0,0,0,0,0,0,0,0,0,0,0,0,0,0,0,0,0,0,0,0,0,0,0,0,0,0,0,0,0,0,0,0,0,0,0,0,0,0,0,0,0,0,0,0,0,0,0,0,0,0,0,0,0,0],"id":11,"left_children":[1,3,5,7,9,11,13,15,17,19,21,23,25,27,29,31,33,35,37,39,41,-1,43,45,47,49,51,53,55,57,59,61,63,65,67,69,71,73,75,77,79,81,83,85,87,89,91,93,95,97,99,101,103,105,-1,107,109,111,113,115,117,-1,-1,-1,-1,-1,-1,-1,-1,-1,-1,-1,-1,-1,-1,-1,-1,-1,-1,-1,-1,-1,-1,-1,-1,-1,-1,-1,-1,-1,-1,-1,-1,-1,-1,-1,-1,-1,-1,-1,-1,-1,-1,-1,-1,-1,-1,-1,-1,-1,-1,-1,-1,-1,-1,-1,-1,-1,-1],"loss_changes":[6.2157715E1,4.2316162E1,4.2046265E1,4.5483215E1,2.7482422E1,5.2741943E1,1.9854004E1,2.4999481E1,3.0810501E1,5.1564087E1,5.7097992E1,3.6834015E1,2.4116364E1,2.450381E1,2.2514343E1,3.5399918E1,9.821808E0,8.548494E1,8.662636E1,3.0615356E1,5.9687134E1,0E0,1.2896057E1,6.047464E1,1.7223587E1,1.5361771E1,4.257364E1,1.4338814E1,1.6521261E1,1.2960999E1,1.8912918E1,1.2809697E1,3.3396454E0,9.515167E0,1.7151306E1,1.4728302E1,1.9292923E1,2.4191902E1,3.1265377E1,2.2517593E1,2.931189E1,1.9526672E-1,4.5380005E1,5.4740906E-2,1.323584E1,1.5122362E1,2.4893707E1,4.453183E0,1.8600437E1,2.1744026E1,1.3752659E1,1.8287354E1,3.6805553E0,1.1373114E1,0E0,1.967589E1,8.254124E0,1.4288528E1,1.5128204E1,5.5059845E1,1.3827667E1,0E0,0E0,0E0,0E0,0E0,0E0,0E0,0E0,0E0,0E0,0E0,0E0,0E0,0E0,0E0,0E0,0E0,0E0,0E0,0E0,0E0,0E0,0E0,0E0,0E0,0E0,0E0,0E0,0E0,0E0,0E0,0E0,0E0,0E0,0E0,0E0,0E0,0E0,0E0,0E0,0E0,0E0,0E0,0E0,0E0,0E0,0E0,0E0,0E0,0E0,0E0,0E0,0E0,0E0,0E0,0E0,0E0,0E0],"parents":[2147483647,0,0,1,1,2,2,3,3,4,4,5,5,6,6,7,7,8,8,9,9,10,10,11,11,12,12,13,13,14,14,15,15,16,16,17,17,18,18,19,19,20,20,22,22,23,23,24,24,25,25,26,26,27,27,28,28,29,29,30,30,31,31,32,32,33,33,34,34,35,35,36,36,37,37,38,38,39,39,40,40,41,41,42,42,43,43,44,44,45,45,46,46,47,47,48,48,49,49,50,50,51,51,52,52,53,53,55,55,56,56,57,57,58,58,59,59,60,60],"right_children":[2,4,6,8,10,12,14,16,18,20,22,24,26,28,30,32,34,36,38,40,42,-1,44,46,48,50,52,54,56,58,60,62,64,66,68,70,72,74,76,78,80,82,84,86,88,90,92,94,96,98,100,102,104,106,-1,108,110,112,114,116,118,-1,-1,-1,-1,-1,-1,-1,-1,-1,-1,-1,-1,-1,-1,-1,-1,-1,-1,-1,-1,-1,-1,-1,-1,-1,-1,-1,-1,-1,-1,-1,-1,-1,-1,-1,-1,-1,-1,-1,-1,-1,-1,-1,-1,-1,-1,-1,-1,-1,-1,-1,-1,-1,-1,-1,-1,-1,-1],"split_conditions":[3.550885E-1,1.3606194E-1,1.993007E-1,3.4292035E-2,4.8245615E-1,1.5957448E-1,2.5524476E-1,5.566465E-1,4.584592E-1,1.670354E-1,2.60574E-1,4.758621E-1,6.7145014E-1,9.1176474E-1,8.9215684E-1,1.7699115E-2,6.170695E-1,8.6283185E-2,2.2727272E-1,2.2840387E-1,4.584592E-1,-4.496667E-1,2.9655173E-1,3.137255E-1,5.234139E-1,4.4335347E-1,8.1724143E-1,6.9425285E-1,5.4137933E-1,2.4339935E-1,4.1254127E-1,3.318584E-3,1.2411347E-1,5.344827E-1,7.736027E-1,5.862069E-2,4.504919E-3,2.3049645E-1,4.7566373E-2,4.1924983E-2,9.373112E-1,6.6206896E-1,4.5172414E-1,2.3529412E-1,6.270627E-1,5.6305313E-1,2.8008604E-1,4.856195E-1,6.403509E-1,2.2068965E-1,4.413793E-1,5.7931036E-1,9.019608E-1,6.960784E-1,1.0814515E0,4.645015E-1,6.1027193E-1,5.9790206E-1,6.818182E-1,2.8014183E-1,3.517139E-1,6.886097E-1,-8.1879236E-2,2.0983773E-1,1.0611521E0,4.0359193E-1,-8.4520504E-2,5.898254E-1,3.4656858E-1,1.2409892E-1,6.396671E-1,4.2393544E-1,-1.4213824E-1,3.1689054E-1,1.0968081E0,6.2775664E-2,-5.014738E-1,-4.4015124E-3,5.5840045E-1,8.641135E-1,4.2546502E-1,9.090845E-1,2.572506E-1,-5.1333494E-2,4.4530457E-1,1.01276785E-1,3.7173015E-1,9.2169446E-1,5.1091874E-1,4.9138921E-1,-3.0905344E-2,6.155805E-1,1.3337891E0,4.0081408E-2,-3.5325718E-1,3.403717E-1,-1.3530147E-1,8.740454E-2,1.0515733E0,-1.8817635E-1,4.509283E-1,6.0015106E-1,1.4095944E0,-2.0181084E-2,4.1303045E-1,5.9540254E-1,1.4124528E-1,2.9501668E-1,-2.0343377E-1,4.3761998E-1,1.0778094E-1,5.8832675E-1,3.0527216E-1,2.5079468E-1,4.0126696E-1,1.7132465E0,5.059613E-1,2.4584758E-1,8.5732156E-1],"split_indices":[8,8,7,8,5,3,7,6,6,8,6,4,6,0,0,8,6,8,7,2,6,0,4,0,6,6,4,4,4,1,1,8,3,4,6,4,9,3,8,9,6,4,4,0,1,8,9,8,5,4,4,4,0,0,0,6,6,7,7,3,2,0,0,0,0,0,0,0,0,0,0,0,0,0,0,0,0,0,0,0,0,0,0,0,0,0,0,0,0,0,0,0,0,0,0,0,0,0,0,0,0,0,0,0,0,0,0,0,0,0,0,0,0,0,0,0,0,0,0],"split_type":[0,0,0,0,0,0,0,0,0,0,0,0,0,0,0,0,0,0,0,0,0,0,0,0,0,0,0,0,0,0,0,0,0,0,0,0,0,0,0,0,0,0,0,0,0,0,0,0,0,0,0,0,0,0,0,0,0,0,0,0,0,0,0,0,0,0,0,0,0,0,0,0,0,0,0,0,0,0,0,0,0,0,0,0,0,0,0,0,0,0,0,0,0,0,0,0,0,0,0,0,0,0,0,0,0,0,0,0,0,0,0,0,0,0,0,0,0,0,0],"sum_hessian":[1.821E3,1.033E3,7.88E2,3.63E2,6.7E2,2.01E2,5.87E2,1.56E2,2.07E2,6.04E2,6.6E1,1.44E2,5.7E1,8.5E1,5.02E2,2.4E1,1.32E2,9.8E1,1.09E2,1.2E2,4.84E2,3E0,6.3E1,7.3E1,7.1E1,3.3E1,2.4E1,2.3E1,6.2E1,4.2E2,8.2E1,7E0,1.7E1,1.3E1,1.19E2,6.9E1,2.9E1,7.5E1,3.4E1,3E1,9E1,2.6E1,4.58E2,8E0,5.5E1,2.3E1,5E1,9E0,6.2E1,1.1E1,2.2E1,1.8E1,6E0,2.1E1,2E0,3.3E1,2.9E1,7.3E1,3.47E2,4.5E1,3.7E1,2E0,5E0,1E0,1.6E1,7E0,6E0,6.5E1,5.4E1,6E0,6.3E1,6E0,2.3E1,7.2E1,3E0,1.8E1,1.6E1,9E0,2.1E1,6.9E1,2.1E1,2.5E1,1E0,1.7E1,4.41E2,1E0,7E0,4.1E1,1.4E1,6E0,1.7E1,4.5E1,5E0,5E0,4E0,5.4E1,8E0,3E0,8E0,3E0,1.9E1,6E0,1.2E1,3E0,3E0,8E0,1.3E1,9E0,2.4E1,1.1E1,1.8E1,3.1E1,4.2E1,2.64E2,8.3E1,3E0,4.2E1,3.4E1,3E0],"tree_param":{"num_deleted":"0","num_feature":"10","num_nodes":"119","size_leaf_vector":"0"}},{"base_weights":[1.0091684E0,1.1078037E0,7.825854E-1,9.192391E-1,1.2582592E0,5.7824457E-1,1.0806234E0,7.54993E-1,1.3616265E0,1.8992286E0,1.1535854E0,6.2438637E-1,-6.0203403E-1,1.2702484E0,2.9389545E-1,1.0860143E0,6.01889E-1,1.5255077E0,-2.9518127E-2,2.1286433E0,5.031853E-1,7.591309E-2,1.197895E0,9.9359936E-1,4.289465E-1,3.6857986E-1,-1.4866431E0,1.8216498E0,1.002091E0,-9.709671E-1,6.370824E-1,3.4879547E-1,1.4591402E0,8.510187E-2,7.753636E-1,2.5268567E0,1.3513454E0,-6.353159E-1,4.580719E-1,1.521212E0,2.8794227E0,2.4037795E-2,1.4566727E0,8.583816E-1,-9.9799067E-1,1.503041E0,1.0922658E0,4.0802097E0,9.278487E-1,3.9370108E-1,2.7413967E0,1.3428917E0,-1.7620722E-2,-1.8390915E0,-4.0368143E-1,8.185536E-1,2.0655324E0,-2.3726508E-2,1.1995918E0,1.875496E-2,-1.397813E0,2.9913483E0,4.843506E-1,-1.680557E-1,1.2099655E0,4.295459E0,1.3048701E0,-5.3945196E-1,9.0216935E-1,5.556748E-1,1.3049932E0,8.0655366E-1,2.931834E0,1.1494588E0,2.1800573E0,-7.362071E-1,3.5461426E-2,1.8455288E-1,8.222122E-1,1.7495098E0,1.610341E-1,4.161872E0,1.9736091E0,5.164321E-1,-6.701218E-1,1.7057419E-2,1.8123121E0,1.7882569E0,3.5767642E-1,-1.5732542E0,6.9763185E-3,1.3672197E0,4.0241513E0,9.216454E-1,1.4579142E0,1.7852988E0,7.1510375E-1,-2.480124E-1,4.78291E-1,-4.2370605E-1,2.9134846E-1,1.1692526E0,2.3584748E-2,2.6587126E0,1.4609123E0,-9.24778E-1,7.2912693E-1,-7.2405815E-1,1.3040595E0,-6.3005066E-1,4.4504037E-1,-4.1366515E-1,6.4780873E-1],"categories":[],"categories_nodes":[],"categories_segments":[],"categories_sizes":[],"default_left":[1,1,1,1,1,1,1,1,1,1,1,1,1,1,1,1,1,1,1,1,1,1,1,1,1,1,1,1,1,1,1,1,1,1,1,1,1,1,1,1,1,1,1,1,1,1,1,0,1,1,0,0,1,0,0,1,1,1,1,1,0,0,1,0,0,0,0,0,0,0,0,0,0,0,0,0,0,0,0,0,0,0,0,0,0,0,0,0,0,0,0,0,0,0,0,0,0,0,0,0,0,0,0,0,0,0,0,0,0,0,0,0,0],"id":12,"left_children":[1,3,5,7,9,11,13,15,17,19,21,23,25,27,29,31,33,35,37,39,41,43,45,47,49,51,53,55,57,59,61,63,65,67,69,71,73,75,77,79,81,83,85,87,89,91,93,-1,95,97,-1,-1,99,-1,-1,101,103,105,107,109,-1,-1,111,-1,-1,-1,-1,-1,-1,-1,-1,-1,-1,-1,-1,-1,-1,-1,-1,-1,-1,-1,-1,-1,-1,-1,-1,-1,-1,-1,-1,-1,-1,-1,-1,-1,-1,-1,-1,-1,-1,-1,-1,-1,-1,-1,-1,-1,-1,-1,-1,-1,-1],"loss_changes":[3.9853027E1,3.478882E1,3.3236267E1,4.0097748E1,4.4908203E1,1.8456688E1,3.31929E1,2.0378815E1,3.4698334E1,2.9995392E1,2.8846313E1,2.2664665E1,1.17099285E1,2.4937622E1,2.0152382E1,3.525087E1,2.5573753E1,2.0303345E1,5.312496E0,3.347168E1,6.817901E0,2.1864056E1,1.7117493E1,1.8538307E1,1.6117908E1,2.6576214E0,1.929409E0,1.249823E1,2.5150826E1,4.250803E0,1.1495706E1,2.0232693E1,3.2025055E1,3.773877E1,2.417453E1,1.0872307E1,1.723619E1,5.6751156E-1,8.4425163E-1,1.4623505E1,3.3605835E1,4.1058745E0,2.529007E0,6.344282E0,6.370305E0,4.4833954E1,2.5857117E1,0E0,1.8606903E1,1.1463665E1,0E0,0E0,8.762532E-1,0E0,0E0,3.596755E0,1.26137085E1,1.4919834E1,2.1843994E1,1.3867035E0,0E0,0E0,5.405555E0,0E0,0E0,0E0,0E0,0E0,0E0,0E0,0E0,0E0,0E0,0E0,0E0,0E0,0E0,0E0,0E0,0E0,0E0,0E0,0E0,0E0,0E0,0E0,0E0,0E0,0E0,0E0,0E0,0E0,0E0,0E0,0E0,0E0,0E0,0E0,0E0,0E0,0E0,0E0,0E0,0E0,0E0,0E0,0E0,0E0,0E0,0E0,0E0,0E0,0E0],"parents":[2147483647,0,0,1,1,2,2,3,3,4,4,5,5,6,6,7,7,8,8,9,9,10,10,11,11,12,12,13,13,14,14,15,15,16,16,17,17,18,18,19,19,20,20,21,21,22,22,23,23,24,24,25,25,26,26,27,27,28,28,29,29,30,30,31,31,32,32,33,33,34,34,35,35,36,36,37,37,38,38,39,39,40,40,41,41,42,42,43,43,44,44,45,45,46,46,48,48,49,49,52,52,55,55,56,56,57,57,58,58,59,59,62,62],"right_children":[2,4,6,8,10,12,14,16,18,20,22,24,26,28,30,32,34,36,38,40,42,44,46,48,50,52,54,56,58,60,62,64,66,68,70,72,74,76,78,80,82,84,86,88,90,92,94,-1,96,98,-1,-1,100,-1,-1,102,104,106,108,110,-1,-1,112,-1,-1,-1,-1,-1,-1,-1,-1,-1,-1,-1,-1,-1,-1,-1,-1,-1,-1,-1,-1,-1,-1,-1,-1,-1,-1,-1,-1,-1,-1,-1,-1,-1,-1,-1,-1,-1,-1,-1,-1,-1,-1,-1,-1,-1,-1,-1,-1,-1,-1],"split_conditions":[4.64539E-1,4.6328384E-1,3.602719E-1,7.3338366E-1,4.7809666E-1,1.360455E-1,8.333334E-1,4.584592E-1,7.017544E-2,4.2307693E-1,4.586207E-1,3.3869636E-1,8.0088496E-1,4.584592E-1,3.1540007E-3,3.2352942E-1,5.528701E-1,7.530211E-1,8.666918E-1,7.156863E-1,4.4405594E-1,4.962871E-1,1.24793604E-1,1.3636364E-1,3.2877862E-1,2.450495E-1,3.3103448E-1,3.448276E-1,5.113293E-1,4.8581558E-1,5.0884955E-2,1.5780142E-1,3.8235295E-1,2.7622378E-1,1.3157895E-1,3.2384603E-3,7.965517E-1,8.7931037E-1,8.0603445E-1,7.765486E-1,5.6394386E-1,9.385965E-1,9.208379E-3,9.929078E-2,3.8163716E-1,1.1587202E-1,2.631579E-2,1.2240629E0,1.13793105E-1,6.140351E-2,8.2241905E-1,4.0286753E-1,6.400709E-1,-5.517275E-1,-1.21104434E-1,4.4561934E-1,4.586207E-1,6.960784E-1,4.5104897E-1,5.567244E-1,-4.1934392E-1,8.974045E-1,1.9137168E-1,-5.041671E-2,3.6298966E-1,1.2886376E0,3.9146104E-1,-1.618356E-1,2.706508E-1,1.6670245E-1,3.9149797E-1,2.4196611E-1,8.795502E-1,3.4483764E-1,6.540172E-1,-2.2086215E-1,1.0638428E-2,5.5365864E-2,2.4666367E-1,5.24853E-1,4.8310235E-2,1.2485616E0,5.9208274E-1,1.5492964E-1,-2.0103654E-1,5.117226E-3,5.4369366E-1,5.364771E-1,1.0730293E-1,-4.7197628E-1,2.0928956E-3,4.1016594E-1,1.2072455E0,2.7649364E-1,4.373743E-1,5.355897E-1,2.1453114E-1,-7.440372E-2,1.434873E-1,-1.2711182E-1,8.740454E-2,3.507758E-1,7.075425E-3,7.976138E-1,4.3827373E-1,-2.774334E-1,2.187381E-1,-2.1721746E-1,3.9121786E-1,-1.8901521E-1,1.3351212E-1,-1.24099545E-1,1.9434263E-1],"split_indices":[3,1,6,6,6,9,5,6,5,7,4,1,8,6,2,0,6,6,6,0,7,1,2,7,2,1,4,4,6,3,8,3,0,7,5,9,4,4,4,8,1,5,2,3,8,2,5,0,4,5,0,0,3,0,0,6,4,0,7,1,0,0,8,0,0,0,0,0,0,0,0,0,0,0,0,0,0,0,0,0,0,0,0,0,0,0,0,0,0,0,0,0,0,0,0,0,0,0,0,0,0,0,0,0,0,0,0,0,0,0,0,0,0],"split_type":[0,0,0,0,0,0,0,0,0,0,0,0,0,0,0,0,0,0,0,0,0,0,0,0,0,0,0,0,0,0,0,0,0,0,0,0,0,0,0,0,0,0,0,0,0,0,0,0,0,0,0,0,0,0,0,0,0,0,0,0,0,0,0,0,0,0,0,0,0,0,0,0,0,0,0,0,0,0,0,0,0,0,0,0,0,0,0,0,0,0,0,0,0,0,0,0,0,0,0,0,0,0,0,0,0,0,0,0,0,0,0,0,0],"sum_hessian":[1.821E3,1.266E3,5.55E2,5.65E2,7.01E2,3.31E2,2.24E2,4.14E2,1.51E2,9.6E1,6.05E2,3.19E2,1.2E1,1.8E2,4.4E1,1.29E2,2.85E2,1.35E2,1.6E1,8.2E1,1.4E1,2.4E1,5.81E2,1.09E2,2.1E2,6E0,6E0,5.7E1,1.23E2,9E0,3.5E1,4.4E1,8.5E1,7.2E1,2.13E2,1.8E1,1.17E2,7E0,9E0,4.7E1,3.5E1,1E1,4E0,1.4E1,1E1,1.46E2,4.35E2,1E0,1.08E2,2.08E2,2E0,1E0,5E0,4E0,2E0,1.2E1,4.5E1,2E1,1.03E2,3E0,6E0,1E0,3.4E1,2.8E1,1.6E1,3E0,8.2E1,4.1E1,3.1E1,1.52E2,6.1E1,4E0,1.4E1,9.6E1,2.1E1,6E0,1E0,6E0,3E0,4E1,7E0,1.3E1,2.2E1,6E0,4E0,1E0,3E0,4E0,1E1,6E0,4E0,1.4E2,6E0,2.99E2,1.36E2,2E1,8.8E1,2.4E1,1.84E2,2E0,3E0,8E0,4E0,2.1E1,2.4E1,9E0,1.1E1,5E0,9.8E1,1E0,2E0,5E0,2.9E1],"tree_param":{"num_deleted":"0","num_feature":"10","num_nodes":"113","size_leaf_vector":"0"}},{"base_weights":[7.14678E-1,8.2498616E-1,6.0868764E-1,7.8806263E-1,1.8940587E0,-4.226667E-1,6.225844E-1,8.1897587E-1,-1.33320205E-2,5.0235367E-1,2.7166367E0,-8.5434645E-1,7.621994E-1,5.802007E-1,9.4996274E-1,3.8980675E0,8.105595E-1,-1.2922109E0,1.1086052E-1,-1.4612664E-1,1.835846E0,2.964015E0,4.917399E-1,-9.096862E-1,-1.7814445E-1,9.010811E-1,1.7277718E-1,5.975172E-1,-3.2513428E-1,3.095889E-1,1.2176614E0,1.5824527E0,7.8458965E-1,-1.2808692E-1,7.0918614E-1,-4.0600714E-1,2.8022575E-1,3.4681778E0,1.3567607E-1,3.0608435E0,7.557945E-1,-1.013674E0,-3.6381912E-1,5.8478343E-1,2.9948788E0,-7.7022135E-1,3.5715213E-1,1.0340662E0,1.9898553E-1,1.6214921E0,9.146481E-1,-3.6127853E-1,1.674653E0,4.0119308E-1,8.4160745E-1,-3.5598794E-1,7.635544E-1,1.0449175E0,2.8292656E-2,3.968048E-2,-5.030807E-1,-4.440117E-2,4.032351E-1,1.7585754E-3,2.0175552E-1,8.7623596E-1,3.1542985E0,1.2115815E0,5.422739E-1,-1.1022309E0,1.1089325E0,9.885893E-1,-3.6357307E-1,-2.0880508E-1,4.5979118E-1,5.8976746E-1,1.8548497E0,1.0920922E0,3.5045657E-1],"categories":[],"categories_nodes":[],"categories_segments":[],"categories_sizes":[],"default_left":[1,1,1,1,1,1,1,1,1,1,1,1,1,1,1,0,1,0,1,1,1,1,0,1,0,0,0,1,1,1,1,1,1,1,1,1,1,0,1,1,0,0,0,1,0,1,1,0,1,1,1,0,0,0,0,0,0,0,0,0,0,0,0,0,0,0,0,0,0,0,0,0,0,0,0,0,0,0,0],"id":13,"left_children":[1,3,5,7,9,11,13,15,17,19,21,23,25,27,29,-1,31,-1,33,35,37,39,-1,41,-1,-1,-1,43,45,47,49,51,53,55,57,59,61,-1,63,65,-1,-1,-1,67,-1,69,71,-1,73,75,77,-1,-1,-1,-1,-1,-1,-1,-1,-1,-1,-1,-1,-1,-1,-1,-1,-1,-1,-1,-1,-1,-1,-1,-1,-1,-1,-1,-1],"loss_changes":[2.0799927E1,3.363922E1,1.3635376E1,2.1365784E1,3.1834076E1,7.300458E0,1.222818E1,1.834961E1,5.384553E0,1.0645187E1,8.449509E0,2.1215248E-1,1.717534E-1,1.30182495E1,1.7451454E1,0E0,1.5376526E1,0E0,4.522857E0,1.1109797E0,1.0630417E1,1.107727E0,0E0,1.420784E-1,0E0,0E0,0E0,2.2762085E1,5.1339154E0,2.3583844E0,7.4496307E0,5.2645493E0,1.7238129E1,4.9455533E0,2.027812E0,2.7954948E-1,1.7763272E-1,0E0,2.6192777E-2,2.985382E-1,0E0,0E0,0E0,2.0658905E1,0E0,7.461272E0,3.545073E0,0E0,3.1802754E0,6.1288834E0,4.022217E0,0E0,0E0,0E0,0E0,0E0,0E0,0E0,0E0,0E0,0E0,0E0,0E0,0E0,0E0,0E0,0E0,0E0,0E0,0E0,0E0,0E0,0E0,0E0,0E0,0E0,0E0,0E0,0E0],"parents":[2147483647,0,0,1,1,2,2,3,3,4,4,5,5,6,6,7,7,8,8,9,9,10,10,11,11,12,12,13,13,14,14,16,16,18,18,19,19,20,20,21,21,23,23,27,27,28,28,29,29,30,30,31,31,32,32,33,33,34,34,35,35,36,36,38,38,39,39,43,43,45,45,46,46,48,48,49,49,50,50],"right_children":[2,4,6,8,10,12,14,16,18,20,22,24,26,28,30,-1,32,-1,34,36,38,40,-1,42,-1,-1,-1,44,46,48,50,52,54,56,58,60,62,-1,64,66,-1,-1,-1,68,-1,70,72,-1,74,76,78,-1,-1,-1,-1,-1,-1,-1,-1,-1,-1,-1,-1,-1,-1,-1,-1,-1,-1,-1,-1,-1,-1,-1,-1,-1,-1,-1,-1],"split_conditions":[2.2727272E-1,2.3049645E-1,8.168317E-2,9.736842E-1,5.558913E-1,8.191489E-1,9.042553E-1,4.898852E-4,8.865248E-2,7.765957E-1,5.6190497E-1,9.54646E-1,5.4042906E-2,8.475177E-1,2.900302E-1,1.1694202E0,1.4380531E-2,-3.876633E-1,4.8230088E-1,5.119637E-1,5.392157E-1,2.6595744E-1,1.4752197E-1,8.039216E-1,-5.344334E-2,2.7032435E-1,5.1833156E-2,8.404255E-1,2.8172207E-1,1.4810231E-1,3.0199116E-1,1.4482757E-1,6.0840707E-2,6.270627E-1,2.1339434E-1,4.385965E-1,1.740421E-2,1.0404534E0,8.9215684E-1,8.77193E-3,2.2673836E-1,-3.041022E-1,-1.0914574E-1,9.310345E-2,8.9846367E-1,5.35066E-1,1.12616844E-1,3.1021988E-1,3.787129E-1,1.4175659E-2,4.811178E-1,-1.08383566E-1,5.023959E-1,1.2035793E-1,2.5248224E-1,-1.06796384E-1,2.2906633E-1,3.1347525E-1,8.487797E-3,1.1904145E-2,-1.5092422E-1,-1.3320351E-2,1.2097054E-1,5.2757264E-4,6.0526658E-2,2.628708E-1,9.462896E-1,3.6347446E-1,1.6268218E-1,-3.3066928E-1,3.3267975E-1,2.965768E-1,-1.09071925E-1,-6.264153E-2,1.3793737E-1,1.7693025E-1,5.5645496E-1,3.2762766E-1,1.05136976E-1],"split_indices":[7,3,1,5,6,3,3,2,3,3,2,8,1,3,6,0,8,0,8,1,0,3,0,0,0,0,0,3,6,1,8,4,8,1,2,5,2,0,0,5,0,0,0,4,0,1,2,0,1,2,6,0,0,0,0,0,0,0,0,0,0,0,0,0,0,0,0,0,0,0,0,0,0,0,0,0,0,0,0],"split_type":[0,0,0,0,0,0,0,0,0,0,0,0,0,0,0,0,0,0,0,0,0,0,0,0,0,0,0,0,0,0,0,0,0,0,0,0,0,0,0,0,0,0,0,0,0,0,0,0,0,0,0,0,0,0,0,0,0,0,0,0,0,0,0,0,0,0,0,0,0,0,0,0,0,0,0,0,0,0,0],"sum_hessian":[1.821E3,8.89E2,9.32E2,8.61E2,2.8E1,1.2E1,9.2E2,8.29E2,3.2E1,1.1E1,1.7E1,9E0,3E0,8.17E2,1.03E2,1E0,8.28E2,2E0,3E1,8E0,3E0,1.5E1,2E0,8E0,1E0,2E0,1E0,8.02E2,1.5E1,3.1E1,7.2E1,2.5E1,8.03E2,2.2E1,8E0,5E0,3E0,1E0,2E0,1.4E1,1E0,6E0,2E0,7.99E2,3E0,9E0,6E0,3E0,2.8E1,2.9E1,4.3E1,1E0,2.4E1,1.05E2,6.98E2,1.8E1,4E0,5E0,3E0,1E0,4E0,1E0,2E0,1E0,1E0,1E0,1.3E1,4.9E1,7.5E2,8E0,1E0,3E0,3E0,1.1E1,1.7E1,6E0,2.3E1,3.2E1,1.1E1],"tree_param":{"num_deleted":"0","num_feature":"10","num_nodes":"79","size_leaf_vector":"0"}},{"base_weights":[5.044838E-1,5.3348315E-1,1.9136617E-1,5.229966E-1,1.3709004E0,1.00170165E-1,1.2773708E0,4.3364313E-1,6.1204034E-1,1.5561234E0,2.4097729E-1,3.2568157E-1,-8.974605E-1,2.636757E0,5.312691E-1,5.2415735E-1,2.599858E-1,5.739188E-1,1.1239201E0,8.7297714E-1,1.849387E0,1.2874851E0,-5.370204E-1,2.2775383E0,2.7285036E-1,-1.178247E0,7.3107585E-2,-7.177747E-1,9.9067795E-1,2.0751302E-1,6.944838E-1,-2.9976303E-3,5.4014206E-1,5.974227E-1,-1.7959468E-1,5.68481E-1,2.022581E0,1.9433575E0,-4.156475E-1,-2.1457672E-3,2.034755E0,-1.2742615E-1,-6.781044E-1,4.4308472E-1,2.9732227E0,4.360449E-1,-1.7426157E-1,-1.4010805E0,6.2578076E-1,-4.458151E-1,5.7375336E-1,1.4975102E-1,1.2970985E0,6.744367E-1,7.137053E-2,6.609617E-1,3.4456682E0,5.9501622E-2,-1.8023765E0,-5.2557594E-1,6.5518135E-1,5.69257E-1,1.643688E0,-4.9964786E-1,8.6383945E-1,2.2240143E0,3.505836E-1,3.0236547E0,8.3763677E-1,-9.9993324E-1,1.12425484E-1,-2.0952007E-1,5.5387866E-1,-4.8166528E-1,3.7821674E-1,3.7365723E-1,-1.5204358E0,-5.0295895E-1,-1.3719177E-1,7.235171E-1,6.2231064E-2],"categories":[],"categories_nodes":[],"categories_segments":[],"categories_sizes":[],"default_left":[1,1,1,1,1,1,1,1,1,1,1,1,1,0,1,1,1,1,1,1,1,0,1,1,1,1,1,0,1,1,1,1,1,1,1,1,1,0,1,0,0,0,0,0,0,1,1,1,0,1,1,0,0,0,0,0,0,0,0,0,0,0,0,0,0,0,0,0,0,0,0,0,0,0,0,0,0,0,0,0,0],"id":14,"left_children":[1,3,5,7,9,11,13,15,17,19,21,23,25,-1,27,29,31,33,35,37,39,-1,41,43,45,47,49,-1,51,53,55,57,59,61,63,65,67,-1,69,-1,-1,-1,-1,-1,-1,71,73,75,-1,77,79,-1,-1,-1,-1,-1,-1,-1,-1,-1,-1,-1,-1,-1,-1,-1,-1,-1,-1,-1,-1,-1,-1,-1,-1,-1,-1,-1,-1,-1,-1],"loss_changes":[1.6442047E1,1.3921967E1,1.5322174E1,1.284668E1,3.8107643E0,3.2913963E1,1.0770058E1,1.2847168E1,1.5414673E1,1.7913437E0,3.9481282E0,1.1649729E1,7.4442425E0,0E0,5.8754807E0,2.9087524E1,2.0999409E1,1.3708969E1,2.6802681E1,1.0462981E1,3.7797241E0,0E0,8.69534E-2,2.5112133E0,8.613033E0,9.318724E0,2.0743628E0,0E0,1.609499E0,1.2093381E1,3.0185928E1,1.6751299E1,1.726307E1,2.1018555E1,8.446521E0,1.2206806E1,2.2377815E1,0E0,1.3466E0,0E0,0E0,0E0,0E0,0E0,0E0,6.6580143E0,5.616859E0,4.592785E0,0E0,1.541853E-3,2.6140475E-1,0E0,0E0,0E0,0E0,0E0,0E0,0E0,0E0,0E0,0E0,0E0,0E0,0E0,0E0,0E0,0E0,0E0,0E0,0E0,0E0,0E0,0E0,0E0,0E0,0E0,0E0,0E0,0E0,0E0,0E0],"parents":[2147483647,0,0,1,1,2,2,3,3,4,4,5,5,6,6,7,7,8,8,9,9,10,10,11,11,12,12,14,14,15,15,16,16,17,17,18,18,19,19,20,20,22,22,23,23,24,24,25,25,26,26,28,28,29,29,30,30,31,31,32,32,33,33,34,34,35,35,36,36,38,38,45,45,46,46,47,47,49,49,50,50],"right_children":[2,4,6,8,10,12,14,16,18,20,22,24,26,-1,28,30,32,34,36,38,40,-1,42,44,46,48,50,-1,52,54,56,58,60,62,64,66,68,-1,70,-1,-1,-1,-1,-1,-1,72,74,76,-1,78,80,-1,-1,-1,-1,-1,-1,-1,-1,-1,-1,-1,-1,-1,-1,-1,-1,-1,-1,-1,-1,-1,-1,-1,-1,-1,-1,-1,-1,-1,-1],"split_conditions":[7.798673E-1,7.544248E-1,8.404255E-1,8.9215684E-1,7.4822694E-1,6.328671E-1,8.6504424E-1,4.64539E-1,8.4482753E-1,7.5995576E-1,9.856957E-3,6.498676E-4,8.0496454E-1,7.910271E-1,4.1584158E-1,9.440559E-2,6.613475E-1,8.1724143E-1,7.35561E-1,3.716997E-1,1.8705693E-3,3.8624555E-1,2.603135E-1,4.150165E-1,4.3753788E-2,4.886707E-1,3.4447193E-1,-2.1533242E-1,5.1960784E-1,3.2025304E-2,7.223451E-1,5.5211484E-1,3.448276E-2,8.034483E-1,1.4539006E-1,9.364687E-2,8.931035E-1,5.830073E-1,3.2352942E-1,-6.4373016E-4,6.1042655E-1,-3.8227845E-2,-2.0343132E-1,1.3292542E-1,8.919669E-1,3.230597E-3,3.3006042E-1,8.064159E-1,1.8773423E-1,3.250825E-1,5.7549506E-1,4.492531E-2,3.8912958E-1,2.0233102E-1,2.1411158E-2,1.9828852E-1,1.0337005E0,1.7850487E-2,-5.4071295E-1,-1.576728E-1,1.9655441E-1,1.7077711E-1,4.931064E-1,-1.4989436E-1,2.5915185E-1,6.672043E-1,1.05175085E-1,9.0709645E-1,2.5129104E-1,-2.9997998E-1,3.3727646E-2,-6.2856026E-2,1.6616361E-1,-1.4449959E-1,1.13465026E-1,1.12097174E-1,-4.5613077E-1,-1.508877E-1,-4.1157532E-2,2.1705514E-1,1.866932E-2],"split_indices":[8,8,3,0,3,7,8,3,4,8,2,2,3,0,1,7,3,4,1,1,2,0,1,1,9,6,1,0,0,2,8,6,4,4,3,1,4,0,0,0,0,0,0,0,0,2,6,8,0,1,1,0,0,0,0,0,0,0,0,0,0,0,0,0,0,0,0,0,0,0,0,0,0,0,0,0,0,0,0,0,0],"split_type":[0,0,0,0,0,0,0,0,0,0,0,0,0,0,0,0,0,0,0,0,0,0,0,0,0,0,0,0,0,0,0,0,0,0,0,0,0,0,0,0,0,0,0,0,0,0,0,0,0,0,0,0,0,0,0,0,0,0,0,0,0,0,0,0,0,0,0,0,0,0,0,0,0,0,0,0,0,0,0,0,0],"sum_hessian":[1.821E3,1.666E3,1.55E2,1.647E3,1.9E1,1.44E2,1.1E1,8.25E2,8.22E2,1.6E1,3E0,1.18E2,2.6E1,3E0,8E0,5.41E2,2.84E2,7.67E2,5.5E1,6E0,1E1,1E0,2E0,2E0,1.16E2,2E1,6E0,2E0,6E0,1.9E2,3.51E2,1.47E2,1.37E2,7.44E2,2.3E1,3.5E1,2E1,3E0,3E0,1E0,9E0,1E0,1E0,1E0,1E0,8.5E1,3.1E1,1.8E1,2E0,3E0,3E0,2E0,4E0,4.2E1,1.48E2,3.48E2,3E0,1.43E2,4E0,1.3E1,1.24E2,7.26E2,1.8E1,1.8E1,5E0,3E0,3.2E1,1E1,1E1,1E0,2E0,1.3E1,7.2E1,2E1,1.1E1,1E0,1.7E1,2E0,1E0,2E0,1E0],"tree_param":{"num_deleted":"0","num_feature":"10","num_nodes":"81","size_leaf_vector":"0"}},{"base_weights":[3.56839E-1,3.2273638E-1,5.388631E-1,3.1695315E-1,1.3884392E0,9.2806077E-1,4.035814E-1,6.111158E-1,2.9987273E-1,2.3616943E0,-1.7523956E-1,8.208008E-1,2.5730953E0,7.0529044E-1,5.904275E-2,9.4265854E-1,-4.126131E-1,-3.9988425E-1,3.1094882E-1,2.9136715E0,7.689285E-2,9.6920955E-1,2.2724152E-2,6.5765E-1,2.9923604E0,-2.9274285E-1,8.8322145E-1,2.5221995E-1,-4.7974735E-1,6.847134E-1,1.5494817E0,-6.6426635E-1,3.2723108E-1,-1.026597E-1,-9.4434786E-1,1.1680943E0,3.0346E-1,1.3798035E0,4.9687773E-1,-2.9476383E-1,3.8933945E-1,8.0403394E-1,-7.764288E-1,1.1661186E0,2.1254705E-1,1.8717246E-1,2.5328674E0,-5.6410766E-1,3.8317108E-1,1.3066701E0,2.750606E-1,1.9822199E0,3.5363516E-1,-9.653084E-1,-1.6447703E-3,1.2742043E0,-1.17004395E-1,-1.9580705E-1,3.662478E-1,-1.0577142E0,-7.539177E-2,2.5342256E-1,3.8276355E0,-5.8271426E-1,3.1593853E-1,1.6062086E0,1.6874821E-1,-3.939047E-1,7.9821324E-1,1.3187027E-1,-3.878479E-1,7.2385155E-2,5.297203E-1,-4.2741776E-2,1.6650568E0,-9.253963E-1,2.859497E-2,9.1741157E-1,2.9167452E0,8.972544E-1,-4.4265032E-1,6.094367E-1,-1.521017E-2,-8.2883334E-1,-2.5598907E-1,-2.7225876E-1,8.470154E-1],"categories":[],"categories_nodes":[],"categories_segments":[],"categories_sizes":[],"default_left":[1,1,1,1,1,1,1,1,1,1,0,1,1,1,1,1,1,1,1,0,0,1,1,0,0,1,1,1,1,1,1,1,1,1,1,1,1,1,1,1,1,1,1,1,1,1,0,1,1,0,0,0,0,0,0,0,0,0,0,0,0,0,0,0,0,0,0,0,0,0,0,0,0,0,0,0,0,0,0,0,0,0,0,0,0,0,0],"id":15,"left_children":[1,3,5,7,9,11,13,15,17,19,-1,21,23,25,27,29,31,33,35,-1,-1,37,39,-1,-1,41,43,45,47,49,51,53,55,57,59,61,63,65,67,69,71,73,75,77,79,81,-1,83,85,-1,-1,-1,-1,-1,-1,-1,-1,-1,-1,-1,-1,-1,-1,-1,-1,-1,-1,-1,-1,-1,-1,-1,-1,-1,-1,-1,-1,-1,-1,-1,-1,-1,-1,-1,-1,-1,-1],"loss_changes":[1.1136154E1,9.032791E0,1.4683723E1,7.5041046E0,1.2588729E1,1.0768585E1,2.2203743E1,2.8559973E1,1.13471985E1,6.081753E0,0E0,8.268887E0,1.2443924E0,2.0502804E1,1.063328E1,8.800255E0,4.1272364E0,3.6250968E0,8.799042E0,0E0,0E0,1.0756672E1,1.5115145E0,0E0,0E0,1.0173195E1,1.8156136E1,1.0652197E1,2.181644E0,1.1360756E1,8.6138115E0,3.1900444E0,2.673162E0,7.7055377E-1,7.083397E-1,2.8221281E1,1.583139E1,8.228809E0,8.098728E0,3.2913548E-1,2.2862208E-1,4.4457264E0,1.5854526E0,2.6930885E1,1.3855724E1,6.333232E0,0E0,1.8270006E0,1.1426595E0,0E0,0E0,0E0,0E0,0E0,0E0,0E0,0E0,0E0,0E0,0E0,0E0,0E0,0E0,0E0,0E0,0E0,0E0,0E0,0E0,0E0,0E0,0E0,0E0,0E0,0E0,0E0,0E0,0E0,0E0,0E0,0E0,0E0,0E0,0E0,0E0,0E0,0E0],"parents":[2147483647,0,0,1,1,2,2,3,3,4,4,5,5,6,6,7,7,8,8,9,9,11,11,12,12,13,13,14,14,15,15,16,16,17,17,18,18,21,21,22,22,25,25,26,26,27,27,28,28,29,29,30,30,31,31,32,32,33,33,34,34,35,35,36,36,37,37,38,38,39,39,40,40,41,41,42,42,43,43,44,44,45,45,47,47,48,48],"right_children":[2,4,6,8,10,12,14,16,18,20,-1,22,24,26,28,30,32,34,36,-1,-1,38,40,-1,-1,42,44,46,48,50,52,54,56,58,60,62,64,66,68,70,72,74,76,78,80,82,-1,84,86,-1,-1,-1,-1,-1,-1,-1,-1,-1,-1,-1,-1,-1,-1,-1,-1,-1,-1,-1,-1,-1,-1,-1,-1,-1,-1,-1,-1,-1,-1,-1,-1,-1,-1,-1,-1,-1,-1],"split_conditions":[6.792283E-1,9.5996976E-1,6.281824E-1,3.021148E-3,9.8413897E-1,4.5575222E-1,1.670354E-1,5.175439E-1,4.9093656E-2,8.77193E-3,-5.257187E-2,1.2280702E-1,6.862745E-1,9.8122346E-1,8.1724143E-1,5.068965E-1,1.3793103E-1,4.07855E-2,6.131781E-4,8.7410146E-1,2.3067856E-2,7.5E-1,8.9215684E-1,1.9729501E-1,8.977081E-1,6.37931E-1,9.312689E-1,8.103448E-1,9.901961E-1,6.896552E-2,2.8684032E-1,5.1237625E-1,1.592773E-2,7.9432625E-1,5.0980395E-1,1.3101674E-3,1.6327312E-3,3.4513277E-1,1.3827434E-1,4.583333E-1,4.609636E-1,9.705882E-1,9.3760717E-1,8.7241375E-1,1.3384956E-1,8.7254906E-1,7.598603E-1,6.6433564E-2,7.2029704E-1,3.9200103E-1,8.251818E-2,5.94666E-1,1.0609055E-1,-2.8959253E-1,-4.934311E-4,3.822613E-1,-3.510132E-2,-5.8742117E-2,1.09874345E-1,-3.1731427E-1,-2.2617532E-2,7.602677E-2,1.1482908E0,-1.7481428E-1,9.478156E-2,4.8186257E-1,5.0624467E-2,-1.1817141E-1,2.3946398E-1,3.956108E-2,-1.16354376E-1,2.1715548E-2,1.589161E-1,-1.2822533E-2,4.9951705E-1,-2.776189E-1,8.578491E-3,2.752235E-1,8.750236E-1,2.6917633E-1,-1.327951E-1,1.8283102E-1,-4.5630513E-3,-2.4865001E-1,-7.6796725E-2,-8.167763E-2,2.541046E-1],"split_indices":[9,6,2,6,6,8,8,5,6,5,0,5,0,2,4,4,4,6,2,0,0,6,0,0,0,4,6,4,0,4,2,1,2,3,0,9,2,8,8,1,2,0,2,4,8,0,0,7,1,0,0,0,0,0,0,0,0,0,0,0,0,0,0,0,0,0,0,0,0,0,0,0,0,0,0,0,0,0,0,0,0,0,0,0,0,0,0],"split_type":[0,0,0,0,0,0,0,0,0,0,0,0,0,0,0,0,0,0,0,0,0,0,0,0,0,0,0,0,0,0,0,0,0,0,0,0,0,0,0,0,0,0,0,0,0,0,0,0,0,0,0,0,0,0,0,0,0,0,0,0,0,0,0,0,0,0,0,0,0,0,0,0,0,0,0,0,0,0,0,0,0,0,0,0,0,0,0],"sum_hessian":[1.821E3,1.536E3,2.85E2,1.529E3,7E0,7.2E1,2.13E2,8.2E1,1.447E3,4E0,3E0,6.9E1,3E0,1.13E2,1E2,6.2E1,2E1,2.2E1,1.425E3,3E0,1E0,5.8E1,1.1E1,1E0,2E0,1.7E1,9.6E1,7.4E1,2.6E1,4.5E1,1.7E1,1.5E1,5E0,1.5E1,7E0,1.1E1,1.414E3,3E1,2.8E1,6E0,5E0,5E0,1.2E1,6.7E1,2.9E1,7.3E1,1E0,2.4E1,2E0,1.7E1,2.8E1,1.2E1,5E0,1E1,5E0,1E0,4E0,1.3E1,2E0,6E0,1E0,9E0,2E0,1.9E1,1.395E3,2.5E1,5E0,7E0,2.1E1,1E0,5E0,2E0,3E0,3E0,2E0,1E1,2E0,6E1,7E0,1.4E1,1.5E1,2.3E1,5E1,1.2E1,1.2E1,1E0,1E0],"tree_param":{"num_deleted":"0","num_feature":"10","num_nodes":"87","size_leaf_vector":"0"}},{"base_weights":[2.5367135E-1,3.40159E-1,1.9711493E-1,-1.378158E0,3.565518E-1,2.2104508E-1,-2.4632217E-1,1.9747859E-1,5.1822E-1,2.4624081E-1,-2.9766473E-1,-3.8982758E-1,5.623542E-1,5.053106E-1,5.517889E-2,9.634706E-1,3.7560096E-1,5.0766486E-1,1.8627626E-1,-7.5427175E-1,4.6299222E-1,1.367792E-1,-5.643157E-1,-1.7238617E-2,1.2911549E0,8.4808123E-1,-4.8271662E-1,-1.0155789E0,1.7443678E-1,1.412097E0,4.4757646E-1,6.704825E-1,1.5439463E-1,4.573743E-1,2.6815414E0,-7.919195E-2,2.4481371E-1,-1.2098119E0,-4.0288785E-1,-3.306423E-1,1.2103275E0,-2.35847E-1,6.108176E-1,-9.6432954E-1,-1.34601E-1,-2.4735387E-1,1.5965748E-1,6.54802E-1,1.9692965E0,5.4102653E-1,-7.611952E-1,6.45689E-1,-1.6974992E0,1.2380241E0,1.2415626E-1,1.7870824E0,7.503365E-1,-1.5896441E0,5.9280944E-1,4.4539422E-1,1.2933863E0,1.7227598E0,7.967684E-2,1.4139845E0,3.759042E-1,-2.277911E-1,6.9806165E-1,5.4237854E-2,3.474416E-1,-1.5717214E0,-7.8715324E-1,-5.1753573E-2,-6.5355337E-1,-6.369918E-1,2.881298E-1,2.5442505E0,7.7941936E-1,2.0970535E-1,-3.2945523E-1,1.9794178E-1,9.577128E-1,-1.1045806E0,-1.6224289E-1,2.1380256E-3,-8.6458844E-1,-4.0664673E-3,2.1558762E-1],"categories":[],"categories_nodes":[],"categories_segments":[],"categories_sizes":[],"default_left":[1,1,1,0,1,1,1,1,1,1,1,1,1,1,1,1,1,1,1,1,1,1,1,1,0,1,1,1,1,1,1,1,1,1,0,1,1,1,1,1,1,1,1,1,1,0,1,0,0,0,0,0,0,0,0,0,0,0,0,0,0,0,0,0,0,0,0,0,0,0,0,0,0,0,0,0,0,0,0,0,0,0,0,0,0,0,0],"id":16,"left_children":[1,3,5,-1,7,9,11,13,15,17,19,21,23,25,27,29,31,33,35,37,39,41,43,45,-1,47,49,51,53,55,57,59,61,63,-1,65,67,69,71,73,75,77,79,81,83,-1,85,-1,-1,-1,-1,-1,-1,-1,-1,-1,-1,-1,-1,-1,-1,-1,-1,-1,-1,-1,-1,-1,-1,-1,-1,-1,-1,-1,-1,-1,-1,-1,-1,-1,-1,-1,-1,-1,-1,-1,-1],"loss_changes":[8.845139E0,2.0744186E1,1.1769566E1,0E0,1.8233932E1,1.3769897E1,6.834039E0,1.5785508E1,2.2054047E1,1.5581612E1,1.7367966E1,4.5796304E0,3.8239262E0,3.901739E1,3.184584E1,1.9040688E1,1.7443264E1,1.9108063E1,1.2684351E1,4.4747334E0,1.1669297E1,2.4403682E0,6.230199E0,2.8373086E-1,0E0,1.713065E1,8.964541E0,2.9417364E1,1.18253E1,9.825859E0,1.3073091E1,1.5547894E1,1.8026377E1,1.3730606E1,0E0,1.7252897E1,1.3046169E1,7.513485E-1,1.6385043E0,2.0791411E0,3.764944E0,4.027475E-1,6.6977644E-1,1.9581661E0,1.898386E0,0E0,3.7505075E-2,0E0,0E0,0E0,0E0,0E0,0E0,0E0,0E0,0E0,0E0,0E0,0E0,0E0,0E0,0E0,0E0,0E0,0E0,0E0,0E0,0E0,0E0,0E0,0E0,0E0,0E0,0E0,0E0,0E0,0E0,0E0,0E0,0E0,0E0,0E0,0E0,0E0,0E0,0E0,0E0],"parents":[2147483647,0,0,1,1,2,2,4,4,5,5,6,6,7,7,8,8,9,9,10,10,11,11,12,12,13,13,14,14,15,15,16,16,17,17,18,18,19,19,20,20,21,21,22,22,23,23,25,25,26,26,27,27,28,28,29,29,30,30,31,31,32,32,33,33,35,35,36,36,37,37,38,38,39,39,40,40,41,41,42,42,43,43,44,44,46,46],"right_children":[2,4,6,-1,8,10,12,14,16,18,20,22,24,26,28,30,32,34,36,38,40,42,44,46,-1,48,50,52,54,56,58,60,62,64,-1,66,68,70,72,74,76,78,80,82,84,-1,86,-1,-1,-1,-1,-1,-1,-1,-1,-1,-1,-1,-1,-1,-1,-1,-1,-1,-1,-1,-1,-1,-1,-1,-1,-1,-1,-1,-1,-1,-1,-1,-1,-1,-1,-1,-1,-1,-1,-1,-1],"split_conditions":[2.632743E-1,1.5819325E-3,6.910066E-1,-4.134474E-1,1.3606194E-1,7.8902316E-1,5.4385966E-1,4.584592E-1,7.469789E-1,8.77193E-3,3.960177E-1,1.8411832E-2,7.079646E-1,8.6283185E-2,5.5362535E-1,3.508772E-2,1.670354E-1,7.827586E-1,4.385965E-2,1.4335665E-1,8.043103E-1,9.3853134E-1,1.6753295E-1,1.4705883E-1,3.8734648E-1,3.8897282E-1,4.504919E-3,3.6504425E-2,6.27451E-1,2.5886524E-1,3.7990937E-1,2.631579E-2,4.596284E-2,1.0344263E-2,8.044625E-1,6.095133E-1,2.8625378E-1,8.1042296E-1,3.4513274E-1,4.019608E-1,1.5424544E-1,1.6250128E-3,5.2836883E-1,9.7787607E-1,9.509804E-1,-7.4206166E-2,3.2352942E-1,1.9644062E-1,5.9078896E-1,1.6230796E-1,-2.2835857E-1,1.937067E-1,-5.0924975E-1,3.7140724E-1,3.724688E-2,5.3612477E-1,2.2510096E-1,-4.7689325E-1,1.7784284E-1,1.3361827E-1,3.8801593E-1,5.16828E-1,2.3903051E-2,4.2419538E-1,1.12771265E-1,-6.8337336E-2,2.094185E-1,1.6271356E-2,1.0423249E-1,-4.7151646E-1,-2.3614599E-1,-1.5526072E-2,-1.9606602E-1,-1.9109754E-1,8.643895E-2,7.632752E-1,2.3382582E-1,6.291161E-2,-9.883657E-2,5.9382536E-2,2.8731385E-1,-3.313742E-1,-4.867287E-2,6.414077E-4,-2.5937656E-1,-1.2199403E-3,6.4676285E-2],"split_indices":[8,2,1,0,8,6,5,6,6,5,8,2,8,8,6,5,8,4,5,7,4,1,2,0,0,6,9,8,0,3,6,5,2,2,0,8,6,6,8,0,2,2,3,8,0,0,0,0,0,0,0,0,0,0,0,0,0,0,0,0,0,0,0,0,0,0,0,0,0,0,0,0,0,0,0,0,0,0,0,0,0,0,0,0,0,0,0],"split_type":[0,0,0,0,0,0,0,0,0,0,0,0,0,0,0,0,0,0,0,0,0,0,0,0,0,0,0,0,0,0,0,0,0,0,0,0,0,0,0,0,0,0,0,0,0,0,0,0,0,0,0,0,0,0,0,0,0,0,0,0,0,0,0,0,0,0,0,0,0,0,0,0,0,0,0,0,0,0,0,0,0,0,0,0,0,0,0],"sum_hessian":[1.821E3,7.18E2,1.103E3,6E0,7.12E2,1.047E3,5.6E1,3.6E2,3.52E2,9.99E2,4.8E1,4.8E1,8E0,1.13E2,2.47E2,8.4E1,2.68E2,1.85E2,8.14E2,3E1,1.8E1,1.2E1,3.6E1,5E0,3E0,8.4E1,2.9E1,2.4E1,2.23E2,4.4E1,4E1,1.14E2,1.54E2,1.82E2,3E0,1.47E2,6.67E2,1.2E1,1.8E1,9E0,9E0,7E0,5E0,1.8E1,1.8E1,2E0,3E0,7.3E1,1.1E1,6E0,2.3E1,7E0,1.7E1,9E0,2.14E2,2.7E1,1.7E1,2E0,3.8E1,8.5E1,2.9E1,6E0,1.48E2,1.3E1,1.69E2,1.24E2,2.3E1,2.34E2,4.33E2,5E0,7E0,8E0,1E1,6E0,3E0,1E0,8E0,1E0,6E0,3E0,2E0,1.5E1,3E0,1.6E1,2E0,1E0,2E0],"tree_param":{"num_deleted":"0","num_feature":"10","num_nodes":"87","size_leaf_vector":"0"}},{"base_weights":[1.7951852E-1,2.4433771E-1,1.2774174E-1,1.7038588E-1,6.6280484E-1,-3.0444735E-1,1.5811995E-1,2.621394E-1,-1.5880635E-2,1.2641033E0,4.033915E-1,1.3210056E0,-5.7944876E-1,7.718148E-1,1.309706E-1,-6.663725E-1,2.842048E-1,4.7942287E-1,-2.338389E-1,2.9538321E-1,1.9419802E0,1.2419479E0,1.133664E-1,7.419137E-1,3.2664165E0,-7.40114E-1,5.172229E-1,1.1496074E0,-6.572049E-1,-1.6966727E-1,1.8355869E-1,-7.5467336E-1,1.0831833E-1,1.3058629E0,2.484861E-1,1.1025712E-1,2.0895915E0,-1.1999118E-1,-7.400531E-1,4.008823E-2,5.456672E-1,2.9846046E0,9.1129494E-1,2.4041393E0,4.061143E-1,-1.3419254E-1,1.4883598E0,1.3954535E0,1.8256824E-1,-1.4431527E0,-5.3344226E-1,-2.6042634E-1,1.3599787E0,6.697336E-1,2.5055122E0,2.0118332E-1,-9.311992E-1,6.06128E-1,-3.585473E-1,5.903317E-1,1.41058E-1,-3.0585098E-1,-8.286476E-1,2.1096379E-1,2.5270386E0,-1.1092691E-1,3.5685408E-1,1.4882497E-2,1.8538309E0,3.9734864E0,8.108063E-1,8.3429456E-2,-7.027921E-1,-9.282898E-1,-1.2989569E-1,-3.0046082E-1,2.6043954E-1,2.809143E-2,6.155935E-1,1.5744654E0,4.0798507E0,1.7155711E-1,1.4151709E0,3.3296967E-1,2.948335E0,8.326332E-1,-5.281464E-1,-7.972155E-1,3.1826985E-1,1.9408293E0,1.0171831E0,3.2879028E-1,-2.74271E-1,-1.6620979E0,-6.44474E-1,-1.1799983E-1,-8.5344064E-1,-5.283928E-2,-5.4538727E-1,3.5606194E-1,1.5759302E0,8.512192E-1,-4.6840668E-2,6.473808E-1,2.6784766E0,2.5088692E-1,5.088806E-2,2.3289871E0,4.5028776E-1,-9.894207E-1,-1.20464E-1,4.435267E-1,1.3774574E0,1.0787731E-1,4.7066092E-1],"categories":[],"categories_nodes":[],"categories_segments":[],"categories_sizes":[],"default_left":[1,1,1,1,1,1,1,1,1,1,1,1,1,1,1,1,1,1,1,1,1,1,1,1,0,1,1,1,1,1,1,1,0,1,1,1,1,1,1,1,1,1,1,1,1,1,1,0,1,1,1,1,1,1,1,1,0,1,1,1,1,0,0,0,0,0,0,0,0,0,0,0,0,0,0,0,0,0,0,0,0,0,0,0,0,0,0,0,0,0,0,0,0,0,0,0,0,0,0,0,0,0,0,0,0,0,0,0,0,0,0,0,0,0,0],"id":17,"left_children":[1,3,5,7,9,11,13,15,17,19,21,23,25,27,29,31,33,35,37,39,41,43,45,47,-1,49,51,53,55,57,59,61,-1,63,65,67,69,71,73,75,77,79,81,83,85,87,89,-1,91,93,95,97,99,101,103,105,-1,107,109,111,113,-1,-1,-1,-1,-1,-1,-1,-1,-1,-1,-1,-1,-1,-1,-1,-1,-1,-1,-1,-1,-1,-1,-1,-1,-1,-1,-1,-1,-1,-1,-1,-1,-1,-1,-1,-1,-1,-1,-1,-1,-1,-1,-1,-1,-1,-1,-1,-1,-1,-1,-1,-1,-1,-1],"loss_changes":[6.0836563E0,2.489177E1,1.3374208E1,1.1762505E1,1.8364239E1,3.0714582E1,1.5710604E1,9.634344E0,2.4725962E1,2.30666E1,2.0774612E1,8.842318E0,1.0602226E1,2.235045E1,1.44182205E1,8.342099E-1,1.6133541E1,4.1378944E1,9.074582E0,1.0004649E0,1.9847115E1,2.039441E1,2.23252E1,3.035225E0,0E0,6.6403713E0,5.5971212E0,1.91432E1,2.304083E0,2.014571E1,1.3315033E1,7.8570366E-2,0E0,1.952285E1,1.706024E1,9.617387E0,2.8096535E1,1.5589173E1,3.210185E0,7.536158E-1,2.722447E-1,9.020912E0,4.230051E0,9.162388E0,6.01847E0,1.7053337E1,1.5775299E-1,0E0,4.9097747E-1,8.5235596E-1,5.3498716E0,2.669531E-1,3.060608E-1,3.29107E0,8.371277E-1,9.64351E-3,0E0,6.2005377E0,1.6402859E1,7.824503E0,7.6375523E0,0E0,0E0,0E0,0E0,0E0,0E0,0E0,0E0,0E0,0E0,0E0,0E0,0E0,0E0,0E0,0E0,0E0,0E0,0E0,0E0,0E0,0E0,0E0,0E0,0E0,0E0,0E0,0E0,0E0,0E0,0E0,0E0,0E0,0E0,0E0,0E0,0E0,0E0,0E0,0E0,0E0,0E0,0E0,0E0,0E0,0E0,0E0,0E0,0E0,0E0,0E0,0E0,0E0,0E0],"parents":[2147483647,0,0,1,1,2,2,3,3,4,4,5,5,6,6,7,7,8,8,9,9,10,10,11,11,12,12,13,13,14,14,15,15,16,16,17,17,18,18,19,19,20,20,21,21,22,22,23,23,25,25,26,26,27,27,28,28,29,29,30,30,31,31,33,33,34,34,35,35,36,36,37,37,38,38,39,39,40,40,41,41,42,42,43,43,44,44,45,45,46,46,48,48,49,49,50,50,51,51,52,52,53,53,54,54,55,55,57,57,58,58,59,59,60,60],"right_children":[2,4,6,8,10,12,14,16,18,20,22,24,26,28,30,32,34,36,38,40,42,44,46,48,-1,50,52,54,56,58,60,62,-1,64,66,68,70,72,74,76,78,80,82,84,86,88,90,-1,92,94,96,98,100,102,104,106,-1,108,110,112,114,-1,-1,-1,-1,-1,-1,-1,-1,-1,-1,-1,-1,-1,-1,-1,-1,-1,-1,-1,-1,-1,-1,-1,-1,-1,-1,-1,-1,-1,-1,-1,-1,-1,-1,-1,-1,-1,-1,-1,-1,-1,-1,-1,-1,-1,-1,-1,-1,-1,-1,-1,-1,-1,-1],"split_conditions":[1.993007E-1,1.5734266E-1,2.2340426E-1,2.8207964E-1,6.6285552E-3,2.0770392E-1,2.2727272E-1,1.3448276E-1,4.3103448E-1,5.5172414E-1,8.77193E-3,8.5087717E-1,6.9425285E-1,3.8495576E-1,2.8846154E-1,1.3725491E-1,4.705438E-1,4.2220545E-1,2.0175439E-1,3.6615044E-1,7.250755E-1,1.7832169E-1,6.073009E-1,2.2027972E-1,9.79925E-1,3.4402657E-1,3.6283186E-1,5.0165015E-1,4.172414E-1,2.3036253E-1,3.548951E-1,2.4137931E-2,3.24955E-2,4.6328384E-1,9.181416E-2,7.765957E-1,4.7885197E-1,2.4976647E-1,2.5636527E-1,5.8209574E-1,7.024834E-4,3.307522E-1,5.181518E-1,5.862832E-2,6.7439854E-1,4.8514852E-1,6.2413794E-1,4.1863605E-1,5.243399E-1,9.607843E-1,7.941177E-1,9.1176474E-1,7.058824E-1,6.9525015E-1,7.647059E-1,1.7821783E-1,-2.7935976E-1,3.0383226E-4,5.137931E-1,5.526316E-1,4.1066325E-1,-9.17553E-2,-2.485943E-1,6.3289136E-2,7.581116E-1,-3.3278074E-2,1.0705623E-1,4.4647492E-3,5.561493E-1,1.1920459E0,2.4324189E-1,2.5028838E-2,-2.1083765E-1,-2.7848694E-1,-3.896871E-2,-9.013825E-2,7.813187E-2,8.42743E-3,1.8467805E-1,4.7233963E-1,1.2239553E0,5.1467136E-2,4.2455128E-1,9.98909E-2,8.845005E-1,2.4978997E-1,-1.5844393E-1,-2.3916467E-1,9.5480956E-2,5.822488E-1,3.0515492E-1,9.863709E-2,-8.228131E-2,-4.986294E-1,-1.9334222E-1,-3.539995E-2,-2.560322E-1,-1.5851784E-2,-1.6361618E-1,1.0681859E-1,4.727791E-1,2.5536576E-1,-1.4052201E-2,1.9421425E-1,8.0354303E-1,7.526608E-2,1.5266419E-2,6.9869614E-1,1.3508633E-1,-2.968262E-1,-3.61392E-2,1.3305801E-1,4.1323724E-1,3.2363195E-2,1.4119828E-1],"split_indices":[7,7,3,8,9,6,7,4,4,4,5,5,4,8,7,0,6,6,5,8,6,7,8,7,0,8,8,1,4,6,7,4,0,1,8,3,6,2,2,1,2,8,1,8,2,1,4,0,1,0,0,0,0,2,0,1,0,9,4,5,9,0,0,0,0,0,0,0,0,0,0,0,0,0,0,0,0,0,0,0,0,0,0,0,0,0,0,0,0,0,0,0,0,0,0,0,0,0,0,0,0,0,0,0,0,0,0,0,0,0,0,0,0,0,0],"split_type":[0,0,0,0,0,0,0,0,0,0,0,0,0,0,0,0,0,0,0,0,0,0,0,0,0,0,0,0,0,0,0,0,0,0,0,0,0,0,0,0,0,0,0,0,0,0,0,0,0,0,0,0,0,0,0,0,0,0,0,0,0,0,0,0,0,0,0,0,0,0,0,0,0,0,0,0,0,0,0,0,0,0,0,0,0,0,0,0,0,0,0,0,0,0,0,0,0,0,0,0,0,0,0,0,0,0,0,0,0,0,0,0,0,0,0],"sum_hessian":[1.821E3,8.07E2,1.014E3,6.87E2,1.2E2,6.6E1,9.48E2,4.6E2,2.27E2,3.5E1,8.5E1,9E0,5.7E1,3.9E1,9.09E2,1E1,4.5E2,6.9E1,1.58E2,1.5E1,2E1,2.1E1,6.4E1,8E0,1E0,5E1,7E0,3.1E1,8E0,1.35E2,7.74E2,9E0,1E0,1.4E1,4.36E2,5.7E1,1.2E1,1.3E2,2.8E1,8E0,7E0,9E0,1.1E1,8E0,1.3E1,5.5E1,9E0,3E0,5E0,1E1,4E1,4E0,3E0,2.4E1,7E0,2E0,6E0,2.6E1,1.09E2,7.2E1,7.02E2,2E0,7E0,8E0,6E0,1.01E2,3.35E2,5.5E1,2E0,4E0,8E0,9.7E1,3.3E1,2.1E1,7E0,3E0,5E0,1E0,6E0,5E0,4E0,5E0,6E0,2E0,6E0,9E0,4E0,2.2E1,3.3E1,3E0,6E0,4E0,1E0,7E0,3E0,1.8E1,2.2E1,3E0,1E0,1E0,2E0,1.9E1,5E0,1E0,6E0,1E0,1E0,1E0,2.5E1,2.9E1,8E1,6.2E1,1E1,6.39E2,6.3E1],"tree_param":{"num_deleted":"0","num_feature":"10","num_nodes":"115","size_leaf_vector":"0"}},{"base_weights":[1.3079776E-1,1.4585404E-1,-3.0930642E-2,1.378993E-1,7.940327E-1,-9.65688E-2,7.647746E-1,2.2406863E-1,1.0332912E-1,1.3960373E0,5.562792E-1,5.2437436E-2,-7.497234E-1,1.8699541E0,1.8860881E-1,1.17869556E-1,6.602814E-1,-3.7267378E-1,1.27419E-1,1.7397003E0,5.870285E-1,2.4619961E-1,1.1892143E0,1.4660568E0,1.5742604E-2,-9.920538E-1,-5.0181866E-2,-7.342122E-1,5.571594E-1,3.6450514E-1,-1.0339593E-2,9.498705E-1,-6.731922E-1,-7.3883694E-1,-1.8498993E-2,1.0737779E-1,8.533395E-1,5.797478E-1,-9.476941E-1,-7.633591E-2,1.5246859E0,3.14291E-1,1.8847942E0,2.6899928E-1,-2.2116514E-1,-1.5455772E0,-4.9424013E-1,2.3839799E-1,-3.983612E-1,2.7724266E-2,9.473047E-1,2.1031521E-1,1.4499638E0,5.3115144E-2,-8.3467674E-1,8.1880707E-1,3.104311E0,-8.458328E-1,1.044529E0,-3.3108303E-1,-1.0701516E0,-1.2466788E0,4.094983E-1,1.3691336E-1,-2.2330089E-1,-1.3020706E-2,1.2252568E0,9.747459E-1,1.5395801E-1,-4.8213087E-2,7.4001807E-1,-1.05228815E-2,-9.981117E-1,-2.0199687E0,7.652918E-2,-1.8563041E-1,-1.3581924E0,-8.084234E-2,4.781723E-1,-4.5300928E-1,-1.1720848E-1,9.1789246E-2,-8.223534E-2],"categories":[],"categories_nodes":[],"categories_segments":[],"categories_sizes":[],"default_left":[1,1,1,1,1,1,1,1,1,1,1,1,1,0,1,1,1,1,1,0,0,1,1,1,1,1,1,0,1,1,1,1,1,1,1,1,1,1,0,0,0,0,0,1,1,1,1,1,1,1,0,0,0,0,0,0,0,0,0,0,0,0,0,0,0,0,0,0,0,0,0,0,0,0,0,0,0,0,0,0,0,0,0],"id":18,"left_children":[1,3,5,7,9,11,13,15,17,19,21,23,25,-1,27,29,31,33,35,-1,-1,37,39,41,43,45,47,-1,49,51,53,55,57,59,61,63,65,67,-1,-1,-1,-1,-1,69,71,73,75,77,79,81,-1,-1,-1,-1,-1,-1,-1,-1,-1,-1,-1,-1,-1,-1,-1,-1,-1,-1,-1,-1,-1,-1,-1,-1,-1,-1,-1,-1,-1,-1,-1,-1,-1],"loss_changes":[4.4411373E0,8.485718E0,8.2215185E0,4.886057E0,2.085988E0,1.4151308E1,7.288511E0,2.174143E1,1.3555432E1,3.6887932E-1,2.8473802E0,6.1497517E0,4.5272617E0,0E0,3.4700298E0,1.2019726E1,3.6166115E1,7.3784213E0,1.6231586E1,0E0,0E0,5.3280764E0,2.2391682E0,8.544879E-1,7.0793138E0,4.7471447E0,8.987888E-1,0E0,1.4196334E0,2.1452736E1,1.3173666E1,1.8918167E1,5.924821E0,3.4283457E0,1.6280241E1,1.0705665E1,9.6823845E0,1.5317919E0,0E0,0E0,0E0,0E0,0E0,8.552219E0,9.972622E0,7.0802097E0,2.9473667E0,4.2138472E-1,8.36134E-3,3.5726555E-2,0E0,0E0,0E0,0E0,0E0,0E0,0E0,0E0,0E0,0E0,0E0,0E0,0E0,0E0,0E0,0E0,0E0,0E0,0E0,0E0,0E0,0E0,0E0,0E0,0E0,0E0,0E0,0E0,0E0,0E0,0E0,0E0,0E0],"parents":[2147483647,0,0,1,1,2,2,3,3,4,4,5,5,6,6,7,7,8,8,9,9,10,10,11,11,12,12,14,14,15,15,16,16,17,17,18,18,21,21,22,22,23,23,24,24,25,25,26,26,28,28,29,29,30,30,31,31,32,32,33,33,34,34,35,35,36,36,37,37,43,43,44,44,45,45,46,46,47,47,48,48,49,49],"right_children":[2,4,6,8,10,12,14,16,18,20,22,24,26,-1,28,30,32,34,36,-1,-1,38,40,42,44,46,48,-1,50,52,54,56,58,60,62,64,66,68,-1,-1,-1,-1,-1,70,72,74,76,78,80,82,-1,-1,-1,-1,-1,-1,-1,-1,-1,-1,-1,-1,-1,-1,-1,-1,-1,-1,-1,-1,-1,-1,-1,-1,-1,-1,-1,-1,-1,-1,-1,-1,-1],"split_conditions":[7.798673E-1,7.544248E-1,8.404255E-1,4.5808157E-1,1.8421052E-1,6.328671E-1,8.6504424E-1,3.7990937E-1,4.94713E-1,1.6801287E-1,9.2105263E-1,6.498676E-4,7.937063E-1,5.609863E-1,4.1584158E-1,4.29078E-1,7.0022124E-1,6.1578315E-2,5.7190263E-1,5.2191013E-1,1.7610855E-1,8.333334E-1,2.0255776E-1,4.150165E-1,5.588236E-1,9.170354E-1,2.7190334E-1,-2.2026367E-1,5.9803927E-1,3.7412587E-1,4.2413792E-1,2.5211066E-1,3.0392158E-1,4.5172414E-1,2.6548672E-1,4.303097E-1,1.2865481E-2,1.0784314E-1,-2.8430825E-1,-2.2900773E-2,4.5740578E-1,9.4287306E-2,5.654383E-1,5.6643355E-1,5.921986E-1,3.1034482E-1,7.340425E-1,3.4447193E-1,6.0231024E-1,6.530528E-1,2.8419143E-1,6.3094564E-2,4.3498915E-1,1.5934544E-2,-2.5040305E-1,2.4564213E-1,9.312933E-1,-2.5374985E-1,3.133587E-1,-9.932491E-2,-3.210455E-1,-3.7400365E-1,1.22849494E-1,4.1074008E-2,-6.699027E-2,-3.906212E-3,3.6757705E-1,2.9242378E-1,4.6187405E-2,-1.4463927E-2,2.2200543E-1,-3.1568645E-3,-2.9943353E-1,-6.0599065E-1,2.2958755E-2,-5.5689126E-2,-4.0745774E-1,-2.4252703E-2,1.4345169E-1,-1.3590279E-1,-3.5162546E-2,2.7536774E-2,-2.4670603E-2],"split_indices":[8,8,3,6,5,7,8,6,6,2,5,2,7,0,1,3,8,2,8,0,0,5,1,1,0,8,6,0,0,7,4,9,0,4,8,8,9,0,0,0,0,0,0,7,3,4,3,1,1,1,0,0,0,0,0,0,0,0,0,0,0,0,0,0,0,0,0,0,0,0,0,0,0,0,0,0,0,0,0,0,0,0,0],"split_type":[0,0,0,0,0,0,0,0,0,0,0,0,0,0,0,0,0,0,0,0,0,0,0,0,0,0,0,0,0,0,0,0,0,0,0,0,0,0,0,0,0,0,0,0,0,0,0,0,0,0,0,0,0,0,0,0,0,0,0,0,0,0,0,0,0,0,0,0,0,0,0,0,0,0,0,0,0,0,0,0,0,0,0],"sum_hessian":[1.821E3,1.666E3,1.55E2,1.647E3,1.9E1,1.44E2,1.1E1,4.7E2,1.177E3,4E0,1.5E1,1.18E2,2.6E1,3E0,8E0,3.79E2,9.1E1,5.6E1,1.121E3,2E0,2E0,1.1E1,4E0,2E0,1.16E2,1.9E1,7E0,2E0,6E0,1.29E2,2.5E2,7.5E1,1.6E1,2.7E1,2.9E1,1.092E3,2.9E1,9E0,2E0,1E0,3E0,1E0,1E0,5.6E1,6E1,8E0,1.1E1,4E0,3E0,3E0,3E0,1.14E2,1.5E1,2.33E2,1.7E1,7.2E1,3E0,1.5E1,1E0,1.3E1,1.4E1,7E0,2.2E1,1.003E3,8.9E1,9E0,2E1,4E0,5E0,3.4E1,2.2E1,4.8E1,1.2E1,6E0,2E0,9E0,2E0,2E0,2E0,2E0,1E0,2E0,1E0],"tree_param":{"num_deleted":"0","num_feature":"10","num_nodes":"83","size_leaf_vector":"0"}},{"base_weights":[9.290057E-2,3.6902395E-1,8.4579974E-2,5.841348E-1,-9.1399145E-1,1.1157074E-1,-1.8552138E-2,2.8715068E-1,1.0301573E0,1.5089035E-1,-1.2941004E0,4.7671688E-1,8.7955125E-2,-1.1309569E0,7.994549E-2,4.9725762E-1,-1.6177826E-1,3.0425167E-1,1.464438E0,3.862133E-1,-1.5987778E-1,-4.2384467E-1,-1.6232672E0,3.9207655E-1,2.0926647E0,-1.5904753E-1,1.24638766E-1,-1.3560514E0,-5.4516256E-1,2.655258E-1,-2.4396816E-1,-2.6886445E-1,7.0559216E-1,7.7393666E-2,-5.3988457E-1,6.357562E-1,-4.6017456E-1,1.7573798E0,7.614319E-1,1.6440699E-1,9.3542767E-1,-6.892716E-1,1.19202636E-1,5.3456706E-1,8.4192485E-2,-2.1805954E0,-1.0974833E0,1.2122345E-1,-6.3267475E-1,3.4824934E-2,5.230265E-1,9.866957E-1,-3.6057636E-1,3.8315964E-1,-5.2766037E-1,2.2605048E-1,1.1568775E0,3.7755775E-1,-2.4211884E-1,-7.873586E-1,1.0126877E-1,1.1733297E0,7.363701E-2,-5.25146E-1,4.3319756E-1,1.0227047E0,-1.641337E-2,-1.0302793E0,1.4470567E-1,3.475737E-1,-4.449567E-1,4.2504263E-1,9.964098E-1,3.4711844E-1,6.557544E-2,-5.9997654E-1,-1.3595352E0,-7.830879E-1,-3.5572663E-1,-4.6103936E-1,5.1329E-1,9.52825E-1,1.805445E-1,-1.7735958E-1,3.0681324E0,-5.3450906E-1,1.9273512E-1],"categories":[],"categories_nodes":[],"categories_segments":[],"categories_sizes":[],"default_left":[1,1,1,1,1,1,1,1,1,1,1,1,1,1,1,1,1,1,1,0,0,0,0,1,0,1,1,1,1,1,1,1,1,1,1,1,0,0,0,1,1,1,1,1,1,0,1,0,1,1,1,1,1,0,0,0,0,0,0,0,0,0,0,0,0,0,0,0,0,0,0,0,0,0,0,0,0,0,0,0,0,0,0,0,0,0,0],"id":19,"left_children":[1,3,5,7,9,11,13,15,17,19,21,23,25,27,29,31,33,35,37,-1,-1,-1,-1,39,-1,41,43,45,47,49,51,53,55,57,59,61,-1,-1,-1,63,65,67,69,71,73,-1,75,-1,77,79,81,83,85,-1,-1,-1,-1,-1,-1,-1,-1,-1,-1,-1,-1,-1,-1,-1,-1,-1,-1,-1,-1,-1,-1,-1,-1,-1,-1,-1,-1,-1,-1,-1,-1,-1,-1],"loss_changes":[4.154848E0,1.5161392E1,4.9290686E0,5.7974243E0,3.4334369E0,1.2056349E1,4.0411892E1,2.8158147E0,5.2288837E0,2.8113952E-1,1.0307426E0,1.0805338E1,1.1971225E1,3.216507E0,2.0442745E1,3.3819022E0,9.4610775E-1,2.3198447E0,9.272156E-1,0E0,0E0,0E0,0E0,9.98998E0,0E0,2.531064E1,1.90055E1,2.0840492E0,6.5986395E-1,1.2813404E1,1.8150461E1,1.045884E0,3.2010493E0,7.6275706E-1,7.1440995E-1,1.7266812E0,0E0,0E0,0E0,1.11628685E1,2.010559E0,1.692825E1,1.4713311E1,4.786537E0,5.102202E0,0E0,1.5310154E0,0E0,9.634471E-2,2.7520828E1,1.48421955E1,2.7196146E1,1.107426E1,0E0,0E0,0E0,0E0,0E0,0E0,0E0,0E0,0E0,0E0,0E0,0E0,0E0,0E0,0E0,0E0,0E0,0E0,0E0,0E0,0E0,0E0,0E0,0E0,0E0,0E0,0E0,0E0,0E0,0E0,0E0,0E0,0E0,0E0],"parents":[2147483647,0,0,1,1,2,2,3,3,4,4,5,5,6,6,7,7,8,8,9,9,10,10,11,11,12,12,13,13,14,14,15,15,16,16,17,17,18,18,23,23,25,25,26,26,27,27,28,28,29,29,30,30,31,31,32,32,33,33,34,34,35,35,39,39,40,40,41,41,42,42,43,43,44,44,46,46,48,48,49,49,50,50,51,51,52,52],"right_children":[2,4,6,8,10,12,14,16,18,20,22,24,26,28,30,32,34,36,38,-1,-1,-1,-1,40,-1,42,44,46,48,50,52,54,56,58,60,62,-1,-1,-1,64,66,68,70,72,74,-1,76,-1,78,80,82,84,86,-1,-1,-1,-1,-1,-1,-1,-1,-1,-1,-1,-1,-1,-1,-1,-1,-1,-1,-1,-1,-1,-1,-1,-1,-1,-1,-1,-1,-1,-1,-1,-1,-1,-1],"split_conditions":[1.9911505E-2,4.6453902E-1,7.736027E-1,8.1560284E-2,2.7516502E-1,3.4292035E-2,7.522124E-2,9.509804E-1,1.2168141E-2,7.54902E-1,1.2792665E-2,6.666666E-1,1.7477876E-1,1.3829787E-1,1.8473452E-1,6.637168E-3,6.0283687E-2,2.6950353E-1,2.5886524E-1,1.15863994E-1,-4.7963336E-2,-1.2715341E-1,-4.8698017E-1,7.0770395E-1,6.2779945E-1,6.140351E-2,2.5995576E-1,2.796812E-1,1.4539006E-1,6.0283687E-2,7.504724E-2,9.803922E-3,3.1468533E-2,9.901961E-1,9.8039216E-1,2.5474516E-1,-1.3805237E-1,5.2721393E-1,2.2842957E-1,4.2037952E-1,9.403149E-1,1.9702712E-1,8.6283185E-2,7.094828E-1,1.13793105E-1,-6.541786E-1,8.067291E-1,3.6367036E-2,9.411765E-1,1.5265487E-1,1.5265487E-1,7.9310346E-1,3.783186E-1,1.1494789E-1,-1.5829812E-1,6.781515E-2,3.4706327E-1,1.1326733E-1,-7.263565E-2,-2.3620759E-1,3.038063E-2,3.5199893E-1,2.2091104E-2,-1.5754381E-1,1.2995927E-1,3.0681142E-1,-4.9240114E-3,-3.090838E-1,4.3411702E-2,1.0427211E-1,-1.3348702E-1,1.275128E-1,2.9892296E-1,1.04135536E-1,1.9672634E-2,-1.7999297E-1,-4.0786058E-1,-2.3492639E-1,-1.06718E-1,-1.3831182E-1,1.53987E-1,2.858475E-1,5.416335E-2,-5.3207878E-2,9.204398E-1,-1.6035272E-1,5.782054E-2],"split_indices":[8,3,6,3,1,8,8,0,8,0,2,5,8,3,8,8,3,3,3,0,0,0,0,6,0,5,8,2,3,3,2,0,7,0,0,9,0,0,0,1,9,9,8,4,4,0,2,0,0,8,8,4,8,0,0,0,0,0,0,0,0,0,0,0,0,0,0,0,0,0,0,0,0,0,0,0,0,0,0,0,0,0,0,0,0,0,0],"split_type":[0,0,0,0,0,0,0,0,0,0,0,0,0,0,0,0,0,0,0,0,0,0,0,0,0,0,0,0,0,0,0,0,0,0,0,0,0,0,0,0,0,0,0,0,0,0,0,0,0,0,0,0,0,0,0,0,0,0,0,0,0,0,0,0,0,0,0,0,0,0,0,0,0,0,0,0,0,0,0,0,0,0,0,0,0,0,0],"sum_hessian":[1.821E3,5.2E1,1.769E3,4.5E1,7E0,1.402E3,3.67E2,2.8E1,1.7E1,2E0,5E0,8.4E1,1.318E3,2.9E1,3.38E2,1.9E1,9E0,7E0,1E1,1E0,1E0,2E0,3E0,8.1E1,3E0,1.7E2,1.148E3,2E1,9E0,2.15E2,1.23E2,4E0,1.5E1,6E0,3E0,5E0,2E0,6E0,4E0,5.8E1,2.3E1,5.8E1,1.12E2,1.02E2,1.046E3,3E0,1.7E1,1E0,8E0,1.14E2,1.01E2,1E1,1.13E2,1E0,3E0,8E0,7E0,3E0,3E0,2E0,1E0,2E0,3E0,1.6E1,4.2E1,2.1E1,2E0,4.1E1,1.7E1,8E1,3.2E1,8.4E1,1.8E1,6.8E1,9.78E2,7E0,1E1,4E0,4E0,5.6E1,5.8E1,4.4E1,5.7E1,7E0,3E0,8.6E1,2.7E1],"tree_param":{"num_deleted":"0","num_feature":"10","num_nodes":"87","size_leaf_vector":"0"}},{"base_weights":[6.5788284E-2,6.1258648E-2,6.4638245E-1,-8.819065E-2,7.772467E-2,2.0038605E-1,1.711277E0,4.9993474E-2,-4.9181384E-1,1.3857515E0,7.203876E-2,4.298138E-1,-5.5469257E-1,2.426946E0,-2.1786499E-1,6.5925084E-3,2.9328613E0,-2.7272245E-1,-1.3622203E0,5.59449E-1,2.3010051E0,3.682119E-2,1.7900158E-1,-6.656647E-2,5.8114624E-1,-7.1964264E-1,-1.1239624E-1,-1.021328E-1,5.9650165E-1,-4.0421325E-1,2.2962189E0,-7.546488E-2,-1.719084E0,-3.2211453E-1,6.155403E-2,-3.6372322E-1,2.2060591E-1,6.9497526E-1,1.9771576E-1,8.8643503E-1,-1.750899E-1,8.494309E-1,-6.9080544E-1,-6.0821253E-1,1.3325882E-1,8.1596375E-2,-1.947937E-1,-4.3828964E-1,-1.8595015E0,-5.491573E-1,5.382273E-1,3.4969044E-1,1.843078E-2,-7.7935964E-1,5.0392187E-1,6.060599E-1,1.5647651E-1],"categories":[],"categories_nodes":[],"categories_segments":[],"categories_sizes":[],"default_left":[1,1,1,1,1,1,1,1,1,1,1,1,1,0,0,1,0,1,1,0,0,1,1,0,1,0,0,1,1,1,0,1,1,1,1,1,1,0,0,0,0,0,0,0,0,0,0,0,0,0,0,0,0,0,0,0,0],"id":20,"left_children":[1,3,5,7,9,11,13,15,17,19,21,23,25,-1,-1,27,-1,29,31,-1,-1,33,35,-1,37,-1,-1,39,41,43,-1,45,47,49,51,53,55,-1,-1,-1,-1,-1,-1,-1,-1,-1,-1,-1,-1,-1,-1,-1,-1,-1,-1,-1,-1],"loss_changes":[4.752043E0,4.4585056E0,6.3062315E0,1.0063964E1,1.2023001E1,2.1440105E0,6.051255E0,1.6871763E1,8.400625E0,4.0066404E0,6.1109705E0,7.1475077E-1,1.3798523E-1,0E0,0E0,8.655421E0,0E0,1.3764264E1,4.0030365E0,0E0,0E0,1.0877009E1,9.15728E0,0E0,1.6811109E-1,0E0,0E0,8.3772335E0,7.4243426E0,4.1378746E0,0E0,7.2120264E-2,4.4392014E-1,1.5726991E1,1.4220612E1,1.0850858E1,9.150047E0,0E0,0E0,0E0,0E0,0E0,0E0,0E0,0E0,0E0,0E0,0E0,0E0,0E0,0E0,0E0,0E0,0E0,0E0,0E0,0E0],"parents":[2147483647,0,0,1,1,2,2,3,3,4,4,5,5,6,6,7,7,8,8,9,9,10,10,11,11,12,12,15,15,17,17,18,18,21,21,22,22,24,24,27,27,28,28,29,29,31,31,32,32,33,33,34,34,35,35,36,36],"right_children":[2,4,6,8,10,12,14,16,18,20,22,24,26,-1,-1,28,-1,30,32,-1,-1,34,36,-1,38,-1,-1,40,42,44,-1,46,48,50,52,54,56,-1,-1,-1,-1,-1,-1,-1,-1,-1,-1,-1,-1,-1,-1,-1,-1,-1,-1,-1,-1],"split_conditions":[9.7205436E-1,2.3275863E-1,1.449115E-1,2.0845921E-1,6.1502645E-4,1.3384956E-1,9.8413897E-1,2.0619336E-1,6.261062E-1,4.3481848E-1,2.7192983E-1,7.962172E-1,8.9215684E-1,7.280838E-1,-6.53595E-2,5.46888E-2,8.7985843E-1,5.8960176E-1,1.1170838E-2,1.6783471E-1,6.9030154E-1,3.689655E-1,2.4984623E-3,-1.996994E-2,9.2156863E-1,-2.158928E-1,-3.3718873E-2,7.446809E-2,6.118881E-1,5.0774336E-1,6.8886566E-1,2.647059E-1,9.440559E-2,4.8184818E-1,4.705438E-1,5.425532E-1,1.254908E-2,2.0849259E-1,5.931473E-2,2.6593053E-1,-5.252697E-2,2.548293E-1,-2.0724164E-1,-1.8246377E-1,3.9977647E-2,2.4478914E-2,-5.843811E-2,-1.314869E-1,-5.578505E-1,-1.6474721E-1,1.6146821E-1,1.0490713E-1,5.529234E-3,-2.338079E-1,1.5117657E-1,1.8181798E-1,4.6942957E-2],"split_indices":[6,4,8,6,2,8,6,6,8,1,5,2,0,0,0,2,0,8,2,0,0,4,2,0,0,0,0,3,7,8,0,0,7,1,6,3,2,0,0,0,0,0,0,0,0,0,0,0,0,0,0,0,0,0,0,0,0],"split_type":[0,0,0,0,0,0,0,0,0,0,0,0,0,0,0,0,0,0,0,0,0,0,0,0,0,0,0,0,0,0,0,0,0,0,0,0,0,0,0,0,0,0,0,0,0,0,0,0,0,0,0,0,0,0,0,0,0],"sum_hessian":[1.821E3,1.808E3,1.3E1,1.79E2,1.629E3,1E1,3E0,1.34E2,4.5E1,6E0,1.623E3,8E0,2E0,2E0,1E0,1.33E2,1E0,3.7E1,8E0,4E0,2E0,1.222E3,4.01E2,2E0,6E0,1E0,1E0,1.13E2,2E1,3.6E1,1E0,2E0,6E0,7.8E1,1.144E3,2.8E1,3.73E2,4E0,2E0,7E0,1.06E2,1.7E1,3E0,2.6E1,1E1,1E0,1E0,1E0,5E0,6.2E1,1.6E1,1.48E2,9.96E2,1.9E1,9E0,5.2E1,3.21E2],"tree_param":{"num_deleted":"0","num_feature":"10","num_nodes":"57","size_leaf_vector":"0"}},{"base_weights":[4.7552574E-2,5.3138617E-2,-3.2578376E-1,4.486247E-2,4.682651E-1,-1.3622539E-1,-1.3816881E0,5.1415145E-2,-3.7811166E-1,-9.971547E-2,8.992363E-1,7.3444366E-1,-2.0601289E-1,3.9142355E-2,3.9358267E-1,9.478124E-1,-5.2209806E-1,4.6393737E-1,-8.906888E-1,2.278703E-1,1.6944758E0,2.2311783E-1,-4.0770245E-1,4.6236638E-2,-3.390327E-1,1.1421523E0,-9.255981E-3,-6.6994995E-1,4.216118E-1,1.1178589E0,1.6072464E-1,-1.3996073E0,-4.0719986E-1,1.4694138E0,-3.492457E-1,6.0840607E-2,1.8910751E0,3.1086296E-1,-1.9554901E-1,-4.5519093E-1,-5.01887E-2,4.2562574E-2,3.046875E0,-6.9456637E-1,-5.3834356E-3,1.906685E-1,1.8398762E0,-4.1157684E-1,6.1994886E-1,-4.422449E-1,-8.9897156E-1,-1.4328766E-1,3.7178954E-1,-4.7026348E-1,-7.747269E-2,1.9840723E0,-3.7281036E-2,1.03889465E-1,-5.931282E-1,2.2549121E0,5.330429E-1,-7.802963E-2,3.8868332E-1,-2.6737213E-1,-5.298267E-1,2.2029877E-2,-9.731293E-2],"categories":[],"categories_nodes":[],"categories_segments":[],"categories_sizes":[],"default_left":[1,1,1,1,1,1,0,1,1,1,1,0,1,1,1,0,1,1,1,1,1,1,1,1,1,1,1,1,0,0,1,0,1,1,1,0,1,1,0,1,1,0,0,0,0,0,0,0,0,0,0,0,0,0,0,0,0,0,0,0,0,0,0,0,0,0,0],"id":21,"left_children":[1,3,5,7,9,11,-1,13,15,17,19,-1,21,23,25,-1,27,29,31,33,35,37,39,41,43,45,47,49,-1,-1,51,-1,53,55,57,-1,59,61,-1,63,65,-1,-1,-1,-1,-1,-1,-1,-1,-1,-1,-1,-1,-1,-1,-1,-1,-1,-1,-1,-1,-1,-1,-1,-1,-1,-1],"loss_changes":[3.8170419E0,6.1494136E0,5.2159786E0,4.903019E0,8.657081E0,1.6095885E0,0E0,7.274665E0,5.649557E0,7.5465727E0,1.0291815E1,0E0,2.081643E0,4.514867E0,1.810374E1,0E0,3.770691E0,1.8031061E0,1.1524758E0,9.111362E0,2.7754898E0,3.5467675E-1,2.4879909E-1,1.802774E1,3.6735907E0,1.3590525E1,1.0380847E1,7.497206E-1,0E0,0E0,5.6660354E-1,0E0,6.7536354E-2,3.175702E0,1.0562255E0,0E0,2.7508526E0,2.4217516E-1,0E0,5.459094E-2,1.23535255E-2,0E0,0E0,0E0,0E0,0E0,0E0,0E0,0E0,0E0,0E0,0E0,0E0,0E0,0E0,0E0,0E0,0E0,0E0,0E0,0E0,0E0,0E0,0E0,0E0,0E0,0E0],"parents":[2147483647,0,0,1,1,2,2,3,3,4,4,5,5,7,7,8,8,9,9,10,10,12,12,13,13,14,14,16,16,17,17,18,18,19,19,20,20,21,21,22,22,23,23,24,24,25,25,26,26,27,27,30,30,32,32,33,33,34,34,36,36,37,37,39,39,40,40],"right_children":[2,4,6,8,10,12,-1,14,16,18,20,-1,22,24,26,-1,28,30,32,34,36,38,40,42,44,46,48,50,-1,-1,52,-1,54,56,58,-1,60,62,-1,64,66,-1,-1,-1,-1,-1,-1,-1,-1,-1,-1,-1,-1,-1,-1,-1,-1,-1,-1,-1,-1,-1,-1,-1,-1,-1,-1],"split_conditions":[9.521452E-1,8.890264E-1,5.496454E-1,7.743399E-1,2.4499553E-1,4.345618E-3,-4.1450647E-1,7.35561E-1,1.7699115E-2,4.7959555E-2,6.2937066E-2,2.2033311E-1,1.2057522E-1,7.083333E-1,2.2488068E-1,2.8434372E-1,6.3053095E-1,2.1460177E-1,9.030528E-1,9.3277943E-1,3.4313726E-1,6.636286E-1,7.7760615E-3,7.05033E-1,8.77193E-3,6.9259816E-1,8.8652484E-2,8.3459216E-1,1.2648354E-1,3.3535767E-1,3.4827587E-1,-4.198822E-1,2.2455752E-1,9.509804E-1,8.103448E-1,1.8252183E-2,9.607843E-1,7.112069E-1,-5.8664706E-2,2.511062E-1,4.9019608E-1,1.2768772E-2,9.1406256E-1,-2.0836993E-1,-1.6150308E-3,5.720055E-2,5.5196285E-1,-1.23473056E-1,1.8598467E-1,-1.3267347E-1,-2.6969147E-1,-4.29863E-2,1.1153687E-1,-1.4107905E-1,-2.3241807E-2,5.952217E-1,-1.11843115E-2,3.116684E-2,-1.7793846E-1,6.764737E-1,1.5991288E-1,-2.340889E-2,1.16605E-1,-8.021164E-2,-1.5894802E-1,6.6089635E-3,-2.919388E-2],"split_indices":[1,1,3,1,2,2,0,1,8,2,7,0,8,1,9,0,8,8,1,6,0,2,9,1,5,6,3,6,0,0,4,0,8,0,4,0,0,4,0,8,0,0,0,0,0,0,0,0,0,0,0,0,0,0,0,0,0,0,0,0,0,0,0,0,0,0,0],"split_type":[0,0,0,0,0,0,0,0,0,0,0,0,0,0,0,0,0,0,0,0,0,0,0,0,0,0,0,0,0,0,0,0,0,0,0,0,0,0,0,0,0,0,0,0,0,0,0,0,0,0,0,0,0,0,0,0,0,0,0,0,0,0,0,0,0,0,0],"sum_hessian":[1.821E3,1.795E3,2.6E1,1.761E3,3.4E1,2.3E1,3E0,1.735E3,2.6E1,1.5E1,1.9E1,1E0,2.2E1,1.676E3,5.9E1,2E0,2.4E1,9E0,6E0,1.1E1,8E0,7E0,1.5E1,1.646E3,3E1,2E1,3.9E1,2.1E1,3E0,2E0,7E0,2E0,4E0,3E0,8E0,1E0,7E0,6E0,1E0,1.3E1,2E0,1.645E3,1E0,1.4E1,1.6E1,9E0,1.1E1,2.4E1,1.5E1,1.2E1,9E0,3E0,4E0,3E0,1E0,2E0,1E0,3E0,5E0,5E0,2E0,1E0,5E0,5E0,8E0,1E0,1E0],"tree_param":{"num_deleted":"0","num_feature":"10","num_nodes":"67","size_leaf_vector":"0"}},{"base_weights":[3.4430873E-2,4.6680856E-2,-9.6691936E-2,3.7971467E-2,4.4020993E-1,-7.928324E-1,-3.8413476E-2,4.3752614E-2,-9.0410614E-1,2.0942414E-1,1.8291969E0,1.2845898E-1,-1.1142027E0,3.1672964E-1,-1.9123586E-1,2.1016087E-2,1.5811783E-1,-8.8578545E-2,-1.0969157E0,-4.1721997E-1,3.7008125E-1,6.935663E-1,3.1858597E0,-1.7577934E-1,2.8846487E-1,-1.6723808E0,-3.3318406E-1,7.318413E-1,-9.41046E-2,-2.7694577E-1,4.7466722E-1,3.6199488E-2,-3.931694E-1,-4.4644615E-1,2.1111093E-1,9.1804504E-2,-2.2467232E-1,-6.2357205E-1,-2.0996475E-1,8.035946E-1,9.3303904E-2,-4.258423E-1,1.8724442E-2,4.6029624E-1,2.298195E0,-2.4719602E-1,1.0089035E0,-3.199311E-1,2.0901823E-1,2.067337E0,1.4193934E-1,3.0724645E-2,9.220209E-1,-1.1455832E0,1.8836975E-2,-1.9743814E-1,-1.2535858E0,-2.61442E-1,2.773404E-1,8.6709976E-2,-3.0581093E-1,1.3475323E0,3.7797382E-1,-3.218895E-1,6.0063267E-1,9.8170567E-1,-2.8606033E-1,-3.6793336E-1,5.998726E-1,-2.2044145E-1,-8.463405E-1,6.817309E-1,-6.217448E-2,-6.9755936E-1,2.9564515E-1],"categories":[],"categories_nodes":[],"categories_segments":[],"categories_sizes":[],"default_left":[1,1,1,1,1,1,1,1,1,1,1,1,1,1,1,1,1,1,0,1,1,0,0,0,0,0,1,1,1,1,1,1,1,1,1,0,0,0,1,1,1,0,0,1,0,1,0,1,1,0,1,0,0,0,0,0,0,0,0,0,0,0,0,0,0,0,0,0,0,0,0,0,0,0,0],"id":22,"left_children":[1,3,5,7,9,11,13,15,17,19,21,23,25,27,29,31,33,35,-1,37,39,-1,-1,-1,-1,-1,41,43,45,47,49,51,53,55,57,-1,-1,-1,59,61,63,-1,-1,65,-1,67,-1,69,71,-1,73,-1,-1,-1,-1,-1,-1,-1,-1,-1,-1,-1,-1,-1,-1,-1,-1,-1,-1,-1,-1,-1,-1,-1,-1],"loss_changes":[2.931106E0,5.6967583E0,6.298464E0,8.927903E0,1.1157026E1,3.6960373E0,7.9302735E0,4.2169123E0,1.4752522E0,3.3759995E0,5.4937344E0,2.4542585E-1,3.3663177E0,7.572723E0,5.9530554E0,8.535481E0,8.712397E0,9.4272956E-2,0E0,1.6844463E-1,3.0446749E0,0E0,0E0,0E0,0E0,0E0,1.7100972E-1,8.299533E0,4.1332016E0,1.9677987E0,6.065672E0,6.315122E0,1.4901545E1,4.174148E0,7.8341503E0,0E0,0E0,0E0,1.6869253E-1,1.8057795E0,3.77421E0,0E0,0E0,8.063974E0,0E0,2.3684425E0,0E0,4.2127028E0,1.0679561E0,0E0,1.6256241E0,0E0,0E0,0E0,0E0,0E0,0E0,0E0,0E0,0E0,0E0,0E0,0E0,0E0,0E0,0E0,0E0,0E0,0E0,0E0,0E0,0E0,0E0,0E0,0E0],"parents":[2147483647,0,0,1,1,2,2,3,3,4,4,5,5,6,6,7,7,8,8,9,9,10,10,11,11,12,12,13,13,14,14,15,15,16,16,17,17,19,19,20,20,26,26,27,27,28,28,29,29,30,30,31,31,32,32,33,33,34,34,38,38,39,39,40,40,43,43,45,45,47,47,48,48,50,50],"right_children":[2,4,6,8,10,12,14,16,18,20,22,24,26,28,30,32,34,36,-1,38,40,-1,-1,-1,-1,-1,42,44,46,48,50,52,54,56,58,-1,-1,-1,60,62,64,-1,-1,66,-1,68,-1,70,72,-1,74,-1,-1,-1,-1,-1,-1,-1,-1,-1,-1,-1,-1,-1,-1,-1,-1,-1,-1,-1,-1,-1,-1,-1,-1],"split_conditions":[7.798673E-1,7.4004424E-1,1.0992908E-1,7.311947E-1,7.058824E-1,2.912541E-1,4.9822694E-1,5E-1,1.4827585E-1,1.7656766E-1,4.4966996E-1,2.590759E-1,4.839109E-1,6.22807E-1,8.404255E-1,4.122807E-1,5.1724136E-2,3.0392158E-1,-3.2907474E-1,1.8338332E-1,3.3663368E-1,2.080699E-1,9.557579E-1,-5.2733805E-2,8.653946E-2,-5.017143E-1,7.9702973E-1,4.8581558E-1,5.89934E-1,1.9293013E-1,8.2867134E-1,3.9473683E-1,3.993399E-1,6.25E-1,5.4628626E-3,2.7541352E-2,-6.74017E-2,-1.8707162E-1,4.410876E-1,1.4463272E-2,7.6216817E-1,-1.2775269E-1,5.6173326E-3,3.000186E-2,6.894585E-1,9.444098E-2,3.0267107E-1,3.202417E-1,5.392157E-1,6.202011E-1,3.0486798E-1,9.217394E-3,2.766063E-1,-3.4367496E-1,5.6510926E-3,-5.923144E-2,-3.7607577E-1,-7.8432605E-2,8.320212E-2,2.6012994E-2,-9.174328E-2,4.042597E-1,1.1339215E-1,-9.656685E-2,1.801898E-1,2.945117E-1,-8.5818104E-2,-1.10380016E-1,1.7996179E-1,-6.613243E-2,-2.5390217E-1,2.0451929E-1,-1.8652344E-2,-2.0926781E-1,8.8693544E-2],"split_indices":[8,8,3,8,0,1,3,5,4,1,1,1,1,5,3,5,4,0,0,2,1,0,0,0,0,0,1,3,1,9,7,5,1,8,2,0,0,0,6,9,8,0,0,2,0,2,0,6,0,0,1,0,0,0,0,0,0,0,0,0,0,0,0,0,0,0,0,0,0,0,0,0,0,0,0],"split_type":[0,0,0,0,0,0,0,0,0,0,0,0,0,0,0,0,0,0,0,0,0,0,0,0,0,0,0,0,0,0,0,0,0,0,0,0,0,0,0,0,0,0,0,0,0,0,0,0,0,0,0,0,0,0,0,0,0,0,0,0,0,0,0,0,0,0,0,0,0,0,0,0,0,0,0],"sum_hessian":[1.821E3,1.666E3,1.55E2,1.631E3,3.5E1,1.1E1,1.44E2,1.622E3,9E0,3.1E1,4E0,3E0,8E0,4.3E1,1.01E2,1.354E3,2.68E2,2E0,7E0,6E0,2.5E1,3E0,1E0,1E0,2E0,4E0,4E0,2.1E1,2.2E1,9E1,1.1E1,1.307E3,4.7E1,2.1E1,2.47E2,1E0,1E0,2E0,4E0,9E0,1.6E1,3E0,1E0,1.9E1,2E0,2E1,2E0,8.3E1,7E0,1E0,1E1,1.3E3,7E0,1.6E1,3.1E1,1.7E1,4E0,3E1,2.17E2,1E0,3E0,3E0,6E0,9E0,7E0,1.1E1,8E0,1.8E1,2E0,7.1E1,1.2E1,2E0,5E0,1E0,9E0],"tree_param":{"num_deleted":"0","num_feature":"10","num_nodes":"75","size_leaf_vector":"0"}},{"base_weights":[2.5039133E-2,7.017795E-2,-1.0918701E-2,2.1233136E-2,3.5061792E-1,-1.9719323E-2,8.7551576E-1,-8.3296694E-2,1.6970102E-1,3.662136E-2,6.3412875E-1,-3.5854685E-1,3.2973061E-3,-1.1744944E-1,1.1384382E0,2.7116783E-2,-2.3454739E-1,-1.4301793E-1,3.9152053E-1,5.2781564E-1,-2.1621215E-1,2.1455116E0,4.6684554E-1,6.222614E-1,-5.303566E-1,-2.226666E-2,2.1429302E-1,2.0423889E-1,-3.8041306E-1,-1.792016E-1,1.6839856E-1,-4.006015E-1,3.992833E-1,1.5031242E0,-1.6970664E-1,6.014916E-2,6.9553846E-1,6.606734E-1,-4.4526926E-1,-5.3606516E-1,1.8673113E-1,2.762516E0,6.076686E-1,3.8988447E-1,2.4268131E0,1.7452621E-1,2.3259392E0,-1.0847152E0,-3.6711434E-1,-1.0345752E-1,6.728103E-2,-2.3203507E-1,3.192601E-1,4.3832397E-1,-2.8120348E-1,3.9295205E-1,-2.9901406E-1,-5.1450366E-1,3.7467405E-1,9.0976495E-1,-5.738584E-1,-4.7831587E-2,-5.9911716E-1,4.7418892E-1,-3.5535765E-1,1.9806396E0,4.4301203E-1,1.348793E-1,1.1714808E0,4.4217986E-1,-7.7801853E-1,-4.4328612E-1,3.9839935E-1,7.922132E-2,7.8436446E-1,-1.7413603E-1,9.2989606E-1,-3.316555E-1,-1.5752356E0,2.4045563E-1,-4.693742E-1,-1.8618521E-1,1.9664633E-1,2.9068553E-1,-4.719376E-2,-2.7714577E-1,3.1253433E-1,1.5970815E0,2.1687306E-1],"categories":[],"categories_nodes":[],"categories_segments":[],"categories_sizes":[],"default_left":[1,1,1,1,1,1,1,1,1,1,1,1,1,1,0,1,1,1,1,1,1,1,1,1,1,1,1,0,0,1,1,1,1,0,1,1,1,1,0,1,1,0,0,1,0,1,0,1,1,1,1,1,1,0,0,0,0,0,0,0,0,0,0,0,0,0,0,0,0,0,0,0,0,0,0,0,0,0,0,0,0,0,0,0,0,0,0,0,0],"id":23,"left_children":[1,3,5,7,9,11,13,15,17,19,21,23,25,27,-1,29,31,33,35,37,39,41,43,45,47,49,51,-1,-1,53,55,57,59,-1,61,63,65,67,-1,69,71,-1,-1,73,-1,75,-1,77,79,81,83,85,87,-1,-1,-1,-1,-1,-1,-1,-1,-1,-1,-1,-1,-1,-1,-1,-1,-1,-1,-1,-1,-1,-1,-1,-1,-1,-1,-1,-1,-1,-1,-1,-1,-1,-1,-1,-1],"loss_changes":[2.9580436E0,1.1083229E1,7.9354568E0,1.0706949E1,1.0659349E1,7.8466425E0,2.7444372E0,6.769907E0,1.9825634E1,7.317162E0,1.4926601E1,1.1114816E1,5.091207E0,3.314721E-1,0E0,6.880199E0,1.8157738E1,5.483164E0,1.6782219E1,2.8798141E0,5.1265225E0,4.0144424E0,7.8026123E0,7.222028E0,4.5789967E0,6.128683E0,4.8527546E0,0E0,0E0,6.1701803E0,1.4811775E1,1.2202328E1,1.840583E1,0E0,6.146806E0,1.4103451E1,2.7355968E1,4.6764226E0,0E0,5.5511966E0,2.5769882E0,0E0,0E0,6.923234E0,0E0,2.532249E0,0E0,3.9102602E0,2.8465853E0,1.1010103E1,1.0268966E1,5.7793593E-1,1.051272E1,0E0,0E0,0E0,0E0,0E0,0E0,0E0,0E0,0E0,0E0,0E0,0E0,0E0,0E0,0E0,0E0,0E0,0E0,0E0,0E0,0E0,0E0,0E0,0E0,0E0,0E0,0E0,0E0,0E0,0E0,0E0,0E0,0E0,0E0,0E0,0E0],"parents":[2147483647,0,0,1,1,2,2,3,3,4,4,5,5,6,6,7,7,8,8,9,9,10,10,11,11,12,12,13,13,15,15,16,16,17,17,18,18,19,19,20,20,21,21,22,22,23,23,24,24,25,25,26,26,29,29,30,30,31,31,32,32,34,34,35,35,36,36,37,37,39,39,40,40,43,43,45,45,47,47,48,48,49,49,50,50,51,51,52,52],"right_children":[2,4,6,8,10,12,14,16,18,20,22,24,26,28,-1,30,32,34,36,38,40,42,44,46,48,50,52,-1,-1,54,56,58,60,-1,62,64,66,68,-1,70,72,-1,-1,74,-1,76,-1,78,80,82,84,86,88,-1,-1,-1,-1,-1,-1,-1,-1,-1,-1,-1,-1,-1,-1,-1,-1,-1,-1,-1,-1,-1,-1,-1,-1,-1,-1,-1,-1,-1,-1,-1,-1,-1,-1,-1,-1],"split_conditions":[1.993007E-1,1.5957448E-1,8.034483E-1,2.631579E-2,3.4292036E-1,2.2340426E-1,2.0212767E-1,9.313725E-1,4.6245873E-1,8.77193E-3,3.550885E-1,2.0770392E-1,9.901961E-1,7.254902E-1,3.415315E-1,5.244755E-2,9.018127E-1,4.898852E-4,8.9215684E-1,7.482759E-1,6.172414E-1,9.8039216E-1,7.765957E-1,8.5087717E-1,4.3793103E-1,2.5438598E-1,5.498489E-1,6.127167E-2,-1.1412392E-1,4.585719E-2,2.7986726E-1,7.4133664E-1,8.1724143E-1,